-0.6320980711664759 0.1078916750005166 1.1695338313257999 1.6782497060020203
-0.0771825981161317 0.3556719240299295 -0.6651593293358485 0.9047726701921450
0.7092806692826076 -0.4635635990304460 -0.5043745019899515 1.1027605799767488
-0.2536646527828572 0.0644716566992235 0.3968786160793862 0.6853699488736569
-0.3784334183836187 0.0434200183012931 0.7726552152464137 0.9928797571283634
0.6180087261264322 0.9654487778698888 0.0479970620320389 1.5322160976856405
-0.9740934115419838 -0.6442298066996773 -0.4630791235394808 1.3498330538392138
0.3560846854154807 -0.3212189711702115 0.4150820615074418 0.8037338046526092
0.1949725724633851 0.3894278595936591 0.0790876380115200 0.6630536906283908
0.4230361536630470 0.5760209182762297 -0.0310905759794811 0.8691624070572496
0.8506974129613206 0.1509185343139331 0.1553145701846517 1.3444692935966285
-0.3374882368691068 0.3728850417311610 -0.9293384395699331 1.1663312050884800
-0.5132091760922632 -0.5238035760450941 0.7740238693852813 1.1749824574903627
0.4986733420827367 -0.0308958028461244 0.0889226717820690 0.7079928492741536
0.3520240708785839 0.1818143371600575 0.0663918984025827 0.6364764443224747
-0.6819071905303287 -0.1638283982325591 -0.6953636477267994 1.4175197378390314
1.1772065793284192 -0.3097629657672458 0.4548409971062571 1.3900955860489064
-0.4952993887980905 0.4735913639998049 0.2405226506205422 0.8781676322829767
-0.3920479881410151 -0.1947424068207300 -0.3305369226046586 0.7379687442932161
-0.2898592023893136 0.0309140085881709 -0.3648267251221408 0.6795509935458153
0.9086333369584381 0.6797102384660927 -0.6450221588339253 1.6553086028287765
0.1863381165406539 -0.2908791795084749 -0.0213551676461239 0.6029142677542436
-1.0949714534990920 -0.3888310589576178 0.6663773264800492 1.4275600855878938
0.3424438732490038 0.3916919612595277 -0.2546546403782937 0.7610889337234599
0.5661894637094343 0.2880182772065649 -0.3903675184556316 0.8942196691053167
0.3575573558595891 1.4413970656383839 0.3403123458525549 1.8315357153518552
-0.3279197775848417 -0.9142247438155308 -0.1073877792890587 1.0948001544599364
-0.0296375782747513 -0.5271723218228530 -0.2329245665634962 0.7594470863594660
0.2207791304961178 0.5700319822120766 0.0955843662559680 0.7915385250313506
0.1367782253634713 0.8713650834263073 0.2447279795965869 1.0399971903205045
-0.0226623572006249 -1.1037992633904659 -0.8330916419742500 1.7186406601103459
-0.4130039930470242 0.3279166874697420 0.5586364808721879 0.9131776115762898
0.4356663502476491 0.7758825759207240 0.2744551611020621 1.0539646844842783
0.0978368985063231 -0.6488631021975807 -0.4542802469006528 0.9384470721121797
-0.1204992557069480 -0.4549361611928853 -0.3788113950735973 0.7801935879981662
0.1426483204065709 0.4538875899799326 -0.0566593037026975 1.1248403267450293
0.6954881655363259 0.1578835316076183 -0.7583532476131590 1.1521491337706256
-0.8381364859429279 -0.6117711215875510 0.8150125513158565 1.4087934956581223
0.1726413048709936 0.1746722699933404 0.0198643895645819 0.5517490338495930
-0.0299929844644227 0.2792153199865923 -0.0765236932672794 0.5730912928954364
0.0847886334769532 -1.0891803734703092 1.0080263446321982 1.8019678762071880
-0.2564574378582585 0.8381255200660512 -0.7147790845682772 1.2340384616713029
0.1716688043813052 0.2510548534042579 -0.2932472600639210 0.6497766182924232
0.1358413415764952 -0.4357815266984189 0.4826013480975582 0.8276348534272147
-0.0510527080995420 -0.6533988467718903 0.5254249965346400 0.9743330227799732
0.4110334645517313 -1.0083485892312267 -0.0422405755488922 1.4933457569287305
0.1484354694024557 1.1735617585313409 0.4080619427789975 1.3451809614834247
-0.5594689339541871 -0.1652131693001142 -0.3658213672301053 0.8472562377587587
0.2624613292310737 -0.4555779331095594 -0.1284660504276376 0.7325692519616125
0.1485721353206576 -0.5527706561216674 0.0862254748787455 0.7607765049671181
0.0211460277370910 0.9855254347147611 0.8087788297115508 1.6241596589381948
-0.0127541109377414 0.2138843320891051 -0.0098635491789440 0.5382596444007485
-0.0083919167993497 -1.1994097668038664 -0.7989152805326069 1.5233636528319712
0.0396213560835494 0.3880959452917598 0.4236039209892283 0.7585153767829975
-0.0184753283464584 0.5974294894230013 0.3851749087223225 0.8656442821551974
-0.8728257887996890 0.6793658207620252 -0.9889475165943096 1.8022509071030521
0.5636032550746721 -0.6820409035708197 0.7132065545142422 1.2390355091786283
0.3092225337250169 0.0026750828087944 0.2757409620800674 0.6444965398892334
-0.3660907434307378 0.2554632119792714 -0.5745106937813990 0.8792402417420515
-0.5067350453689512 0.4239026087827538 -0.4144368228129106 0.9230106653610006
-0.4602048623169150 -1.2027847942948813 0.2843257592273331 1.6666349855847620
0.7597750171942872 1.0780382417086978 -0.1975977109626840 1.4220359921765879
-0.2995701548773720 0.1247465525861835 -0.0867280482646491 0.5971119784095654
-0.3355818386268212 -0.6092337945867188 0.2264251901742958 0.8824773843884931
-0.1246230236900939 -0.5935509997081625 0.0579005690530372 0.7841576011962688
-0.5605933513086535 0.5414289622798607 0.5091666143576713 1.3799709821911252
0.2175416125444021 -1.2209946741519562 -0.3902505553056797 1.3907425440178538
0.3430517387642514 0.6795657118720955 -0.1189160590519916 0.9150694299619351
-0.4154006996126824 0.2594152467915564 0.2935938325708612 0.7548300009666262
-0.1451926516959711 0.2820137154883044 0.2155727817868101 0.6251409812244990
0.3919837508998960 -0.4762199747734622 0.5336943694912787 1.3071285571395728
0.4145790655322050 0.9802960897224370 -0.5742640576118612 1.3062742488836314
-0.8065628164321281 -0.5040761149489748 0.0405696881205825 1.0723801501502070
0.0591150780048239 -0.1941682918086158 0.2594785156564290 0.5934997880434801
0.3328686728950721 -0.2820516829648465 0.2742158538348496 0.7136287690960927
0.2123585210306016 -1.3822270090223445 -0.3132838167244937 1.7562704814152847
-0.3247491589229207 0.2547985179612182 -0.0380984491388296 0.6446338287215165
0.1123906378923191 1.1274284910611263 0.3513822658633232 1.2848786460341126
0.0421112008137824 -0.5652102901631633 -0.2142808909263598 0.7815812855266562
0.1702473202168192 -0.8170167188591813 -0.0990029257981339 0.9746891958886287
0.4679527867347216 0.3195359596637788 0.4050230925811033 1.2345345806506005
-1.2339120452066057 -0.2209037774629254 0.1869010156324999 1.3601420455881799
0.7659592584718838 -0.0986321822008534 -0.5919241082136033 1.0911063299321337
0.3067105501578269 0.0657839495918822 0.2499536548021310 0.6360760170608281
0.1612422365768947 0.2537520100718967 0.1550694377789723 0.5984585635897725
1.1407025046481898 0.4198150550324371 -0.4507288529210433 1.6487248267164998
-0.7719307164270883 -0.1934240745332666 0.8533333791738026 1.2669588548622523
-0.3687717882211013 -0.2263909804991705 -0.4026045262527592 0.7700992745921615
0.7118021930573905 0.2137832499223171 -0.1724279360015292 0.9087430953968264
0.4289003115907993 0.2060318051101200 -0.2783009169195141 0.7399817313196735
1.1439735481295976 0.3091494123847178 0.4732482598064563 1.6316052707275324
-0.3163003111410524 -0.3418773960485164 -0.7878473352306947 1.0398780912760628
-0.8276732369885482 0.0327279836637986 0.3145990754242385 1.0142995941676130
0.4680291266747107 0.0631471722304185 0.2780194284622170 0.7375978658510668
0.6759444214548869 0.2460022401542993 0.1952288313442393 0.8940074048764657
0.2196312371406454 1.4863128041962310 0.1750191416329999 1.8243056472467858
-0.2258310993455035 -0.8786306100148685 0.0853993940719504 1.0363404224112629
0.0061998622048581 -0.6076821941813625 -0.2604185357049503 0.8251368865128653
0.0126878453257542 0.7819630035491679 0.1657369279646855 0.9395811992365629
0.2069433918148912 0.7043498006470631 0.0092822136683144 0.8847244480102229
-0.0104119550916041 1.2350180299065248 -0.4276024433524700 1.6585418062113479
0.3029066854770003 -0.0181526110836236 -0.0886392443539511 0.5862216930176288
-0.2924947303853963 -1.2168654188229013 0.5162416877064211 1.4410194569419368
-0.0776252991716858 0.4488423321511832 -0.1797600899892179 0.6953530013484795
0.0672133440800817 0.7861756977553416 -0.2478423533632520 0.9631888048628684
0.6165143109322448 -1.4020192345489670 0.1775289944943222 1.8481963084457109
-0.2900658394316895 0.5706865783208678 -0.0697281255858791 0.8114187289602767
-0.3264484715006635 0.8313326562280995 -0.1078008689084431 1.0261679187748964
0.4465457462486008 -0.7232194144406020 0.0771683885561789 0.9859621521325677
0.1699685646836440 -0.6787998201083651 0.1003606059381433 0.8622341563131434
-0.6978520439838078 -0.9864309034083509 -0.0434814591589593 1.5788528685634913
0.1355199937947598 -0.2790788631504744 -0.2006196235235127 0.6166164887895953
0.5623320501890482 1.2655097665588253 0.2441010826824720 1.4903135988178280
-0.2357597529858613 -0.3500038891499850 -0.0056035770397407 0.6494873085385962
-0.4620922909979465 -0.6364270142583659 -0.0378778821192187 0.9293655600248950
0.7124749060953015 1.0795019535575090 0.2386474321500975 1.6640501027223031
-0.8641692580175163 -0.3639473937044074 -0.3844912833781826 1.1272962073960762
0.1516943519222149 -0.7155545598531016 0.1458438512280851 0.8944366460525343
0.5035471110749800 0.6497446961096475 0.1662252807673960 0.9731781375934090
0.2089277950203215 0.4297572574478614 0.0724221513827015 0.6908719651288941
0.9658573798618219 0.5808238654851356 -0.1572713406807438 1.5266724210489211
-0.1231013454411817 0.3691591490647551 -0.3326498259360605 0.7111999055201952
-0.8427560344206402 -0.9499830145498909 0.4899211666168043 1.4479106296017972
0.3463540872928157 0.3162598966051254 -0.1136426541350687 0.6903717181004642
0.6195032925690062 0.2645639688800103 -0.0436286865456751 0.8363007029484570
-0.6394118957590502 0.9115178503587511 -0.4331534955863632 1.5725097779928245
0.3567747128360248 -0.6701503418283754 0.9464746392502494 1.3099316392258056
0.2826371829230255 -0.2413675085303756 -0.5133211436638861 0.8033415389522844
-0.3474107794048816 0.6026774574790853 -0.3214440227852292 0.9115687618131245
-0.2920011163541686 0.3088403928796657 -0.1117094728011340 0.6609410161796999
1.1168914980044282 0.1848479038516111 -0.2709983869164992 1.5510944586497128
0.1848564439150193 0.2138590524697331 -0.2134782630523590 0.6076162837720948
-1.3017479419194475 -0.3987069563213441 0.4844766499688583 1.5270722137491060
0.6574989923945650 0.1125994400993590 -0.0269912886160753 0.8303186550359529
0.4593925056098632 0.0722484637522520 -0.2440070983004239 0.7207758036137599
-0.9655528138731768 0.9786100220185889 -0.5199721711709180 1.7896903557760755
0.2295895239066079 -0.6159277482089823 0.0351879888873771 0.8228204636446452
0.7359632899660113 -0.3626822738096067 0.4847841822835409 1.0732721368015772
-0.6462309938520443 0.5162664314115424 -0.3268682113569327 1.0172046664964187
-0.3193218200211325 0.4623435906070466 -0.1931039598139853 0.7724856892796567
0.1719638331036604 -0.5440559676817159 0.3437129811472119 1.2167451336613282
-1.0450117573192459 0.6137389252938404 -0.5876419062455247 1.4344912100327318
0.8730479242155853 -0.0696829576121245 0.2439289250983127 1.0345466124768539
0.0105257931933721 -0.2563951052219006 0.2700245005084231 0.6184492327652468
0.1614380399102884 -0.2876608624598154 0.0736884806387889 0.5982959008960815
-0.5284389336008508 0.0594645709399222 0.4990712762195181 1.2480232708165453
0.0157792961669051 0.8338937957702691 0.3327910497477212 1.0247412902449380
0.5126596374339457 -0.8933583667101912 -0.8318623259672393 1.4130183951094302
-0.3320845170805879 0.0932603042576592 0.1854592553212435 0.6301505586351476
-0.1963544165202629 -0.0337957333177371 0.3136120208982746 0.6178727121813977
-0.8910885392952548 -0.5573006913277609 0.2969110360921725 1.4941668835082975
0.7364174082444306 1.0320214096181834 -0.5174939910302082 1.4556427446860443
0.1546711310508243 -0.4747207182904224 0.2205829549380356 0.7359733279765724
-0.5961060827637630 -0.2659331951944954 0.1350689808511665 0.8294718416748603
-0.2949824565314917 -0.2913674961332656 0.1618420552410060 0.6646950418334372
-1.2013276374334398 -0.0568248096373429 -0.2559941400858992 1.5944728334326754
1.2093457908270571 -0.2355769390439425 0.5615441543789803 1.4412017740922460
-0.0080181533936173 0.2924017486812855 -0.3055500142930811 0.6501083486459924
-0.7036567861490762 -0.0923637584392142 -0.2178743139238144 0.8915436801208548
-0.4976708512843636 0.0355389488018713 -0.0381198261620847 0.7029291533118205
0.9758955243936774 0.7178789937836605 0.3545942562641336 1.6265214518941020
-0.1792604451897012 -0.2410750503409231 -0.7403720048378319 0.9392119957619148
-0.7966350792039761 -0.4768039434427373 0.3857777485736986 1.1200495085148972
0.6584307476207785 0.4861094414011803 0.1925012895721634 0.9749908539303180
0.3174647767728990 0.2317695523824802 0.1620929666919702 0.6515305979637840
-0.6103278609384073 1.1596132284145542 -0.1343581766660334 1.6642639333971825
0.8030198944423905 -0.9382112930257843 0.3998735648913328 1.3887754424165504
-0.1926920335039831 -0.2214019353887698 -0.2655153882252994 0.6327435803571813
-0.1878629701977964 0.4286243577554854 -0.0338070816656974 0.6810809311180218
-0.4224648907406109 0.7309888706590688 -0.1005510950003360 0.9831830022791607
1.3109879343499302 -0.0817963847369043 0.1620806558058891 1.6708964219651095
-0.0880352048045417 0.3548759771064044 0.1500217759212374 0.6323849065179883
-1.2229527295459066 -0.2730795923695001 -0.3121024317271264 1.3825016277355557
0.7357536747147303 0.0680111156555700 0.1242155275980911 0.8972766905110244
0.5752342596351998 -0.1498075003924744 0.0378651282077979 0.7736197314540851
-0.6524951322493246 1.1440097713938899 0.1077154110137535 1.6696835840588866
0.9222889150028563 -0.7735829171356954 -0.2569115259538745 1.3261854639975010
-0.2697937827535351 -0.3704268542581945 0.1491961149401211 0.6899139081148525
-0.1923242625220253 0.4660600204025960 -0.0111692421970126 0.7057211183410658
-0.4601708697272994 0.6779497509912940 0.1188846532107660 0.9639624657178208
-0.2616425471469663 0.6110369947544312 1.3915258952329141 1.8470049004896838
0.1312586417440158 -0.2352725018302766 -0.5659744167426911 0.7978884645651865
0.1303839054029331 -0.3757644929241546 -0.8255514784902230 1.0408895911176463
-0.2453684896176520 0.3450236377879792 0.8131149113451978 1.0412107595057818
-0.0162740575293143 0.2660133569664520 0.5784109838877164 0.8057941409839020
-0.6213886714394594 -0.4316352880379143 0.6472211737054463 1.4259732984795992
-0.3455972136959621 -0.3876238676721023 -0.5366101281903699 0.8951855153592341
0.9669858851348329 0.8192591557100166 -0.1106110455150765 1.3646241423863288
-0.2113427486321625 -0.2314137908288458 0.4053973436978561 0.7115350213386914
-0.4100459228072970 -0.2002214972090685 0.2418238300075903 0.7144382771409079
-0.6774078890318677 -0.3108121391142938 0.0773543030744800 1.2657682730335458
0.5385530421447425 -0.5138683731130973 0.7327856875849682 1.1553319559103490
0.1388548468871251 0.8246805122273910 -0.8101399906594482 1.2646827272270189
-0.2990439943751645 -0.1637374630643398 0.1609585209294559 0.6211778273340072
-0.3783638946567031 -0.1470746760499540 -0.0836042178549759 0.6445904456995386
-0.1679050403974262 -1.4701388813105218 0.3179657274127210 1.8237641964654681
-0.1183831455500820 0.5906840389100951 -0.0530363759396958 0.7806740936365774
0.2862881859475083 0.8794548424004269 -0.2649293514730252 1.0813446660688684
-0.2030983828360694 -0.8036494228814826 0.1423651789692177 0.9752364700524198
0.0351933424386432 -0.6664894584290394 0.1756005484435033 0.8485277264130482
-0.8359727863456131 1.1730559759655146 -0.1291696152039186 1.7700906772223930
0.7385499219566538 -0.4702991455802376 0.2680013447022545 1.0402783159553493
0.0974228643889593 -0.7027568303852770 -0.1388317294983359 0.8754139629931714
-0.3623704367472814 0.3977632130256970 -0.0851448327177625 0.7351833308314852
-0.4736023495983317 0.7752927629398176 -0.0440247824861561 1.0349073463909078
0.6708346231716003 -1.1946521882197678 -0.0205877823653036 1.7007676591439675
-0.2465586827646895 1.2054913311057738 0.0979433798182795 1.3294022789949840
-0.4242759404069107 -0.0108391428860058 -0.0773555974529759 0.6556130180319626
0.4200354954280818 -0.6763472684409216 0.0558886738122087 0.9384646872080471
0.2507991277435185 -0.5183049197788462 -0.0764764561775123 0.7623029719359204
-0.0820220439467856 1.0215983550436625 1.1538604635748164 1.8458395677819368
0.1216196346657861 -0.5520713701684214 -0.6196204045589077 0.9732525671019943
-0.0395975907190005 -0.4695269848752409 -0.5342400590159088 0.8666908212869834
0.0485038334067526 0.5123197135299663 0.6607820628621650 0.9722006097796664
-0.1305258773535382 0.5092786415136961 0.4930784007126515 0.8736389580022704
0.1916453734899335 -1.3836316529169919 0.5690537540219573 1.8193115647569367
-0.2449226517050586 0.6887985406723086 -0.4892839410542276 1.0087349950572233
0.0532772782151221 0.6948331122446834 -0.0797698129677298 0.8577363963570339
0.1193071603067904 -0.6683933126140335 0.4045377638224654 0.9318538520256877
0.0723382131831431 -0.7152383403029585 0.1645159901994920 0.8874577127312491
-1.3128186619195583 -0.8134062469283089 -0.0267434130937631 1.8515976852267617
0.6839024774070850 0.4224909399358072 0.0380389938826487 0.9441319496320386
0.6289161845119990 0.3909153069925017 -0.0112955807888856 0.8900533213558224
-0.5410277197185860 -0.2496855089735965 0.0300500069602979 0.7743860988825995
-0.7717909422009722 -0.5637207379547123 -0.0567934200540609 1.0772115863441623
-1.4552939431704990 -0.4596790781800048 -0.1122500668037592 1.8400332593300630
0.4978538547607629 0.1779689354417390 -0.0255226547132108 0.7238092213525790
0.9574400884097360 0.2817101427382658 0.1377727215169700 1.1219404754882720
-0.5197837943731943 -0.2303441550348963 -0.0121393425513970 0.7530590724626560
-0.9355101487973047 -0.2293349231451085 -0.1001107242523623 1.0869741868674070
1.5107505285585119 0.0606356549211844 0.3041873545032055 1.8479519118657914
-0.7669699574382204 0.0132138301446803 -0.0886773242395194 0.9165141401435981
-0.7437805711202914 -0.0738494850658647 -0.2155100302636861 0.9213169041615241
0.7809349760196775 -0.0318650431226127 0.0479109430634190 0.9256820493767211
0.7298155525388343 0.0925006980437971 0.2562764114397865 0.9222698624890703
0.5131882682884192 0.3334414117867160 0.4671901244471941 1.2775822897258777
0.1745578227752799 -0.7933824451143681 0.4732076435086744 1.0618703272583392
-0.6877460910637101 0.4599410333276520 -0.9403977679558684 1.3463303391877124
0.2280644278210891 0.0941775909422438 0.3340842335331048 0.6451449893608781
0.2851238404673301 0.2392638208444722 0.1331058909140892 0.6324373003649996
0.5847328150104817 1.0610299682204873 -0.7228222496074305 1.7425637362548270
-0.0091545377366659 -0.4751008576745928 -0.0842130581894259 0.6903719649746225
-0.5755782772738157 -0.5859291105458945 0.8070353077968563 1.2528472549414649
0.2194241612862340 0.6274932166614193 -0.3042655045459672 0.8821503143443721
0.3653086537242477 0.4335367515590679 -0.4185567450614632 0.8604134219104548
0.8444274806989871 0.4706511566651334 -0.5352282436284574 1.5050462434453016
-0.2814276038974801 0.4239929181680957 -0.2748549508436245 0.7604168036178750
-0.5629998768015072 -0.8946440748332292 0.8100831944720819 1.4203199091077368
0.5868198856117650 0.2879279186261919 -0.3458156935057183 0.8891375251768743
0.2576075950872221 0.1827232380389415 -0.1894125501227391 0.6159087182684273
-0.3554706520926314 0.5985754703013442 0.6320241450545302 1.3876576164733287
-0.3635423579316068 0.4794280540519855 -0.4515233258392911 0.8997803060350459
0.7190130100242382 -1.0780035243533297 -0.1805008192152391 1.3983450336625391
-0.2993185000218230 0.2794962356311644 0.3807915855698799 0.7459416345513424
-0.0561521520708084 0.3190792346701798 0.2512325594846503 0.6417159819219864
-0.1359789090897121 -0.6942676411769753 -0.3384024028854486 1.2905510652554470
0.0329542868176126 -0.7173373201290869 0.0944666947811180 0.8765270974827342
0.1030246222720995 1.4116049613060619 0.2439357081043307 1.5187047934327327
-0.1539488517194977 -0.3815813364565994 -0.0675387774719956 0.6462066481158858
0.0179699426297856 -0.3126863047203758 -0.2708636254134530 0.6443444171395613
1.2987562181887959 -0.6111823245355377 0.1586668921379206 1.7672151530566360
-1.1114584971990202 0.5586169273836840 0.0713751490078935 1.3402254492362065
-0.1872977209897758 0.0525653971518537 -0.2300420411458140 0.5783423538780714
0.7023759055299881 -0.4423454526257483 0.1280700634029393 0.9742280706265766
0.5963803126588079 -0.1688368719097894 0.0305968287349813 0.7929870824300594
-1.2323534657392949 0.4710748423724512 0.4975653943834566 1.7418916391168335
1.1289817770600916 -0.2313306233751972 -0.0986794018797908 1.2576041964502476
0.1033716886791962 -0.2397442189972540 -0.3988859925036658 0.6862871206045079
-0.6195196964264639 0.3600082444827232 0.3234107464808826 0.9282898693965113
-0.6128337693128311 0.1110665978897280 0.1741546479025740 0.8136017697203223
-1.1358228683299958 -0.0990462367250021 -0.9642370169098915 1.8081101651411329
0.5745182727554790 0.3312303082241665 0.4522458474100952 0.9423524020476046
0.5613045955745170 -0.2321840714991644 0.5119911694997963 0.9353203889821767
-0.5291565171508147 0.0527766864528587 -0.3723657832203955 0.8155766396350881
-0.6066663511791811 -0.1518229231778608 -0.5918712336894960 0.9925335255060448
1.1480496829564875 -0.9702670256243788 -0.1785635935213210 1.8280472809305413
-0.6098347445542250 0.5449649918802988 0.3058242081824749 1.0030606585247219
-0.5382149384022702 0.4253020337440800 -0.1272606146611539 0.8546750167163802
0.6187630819256273 -0.3503033434442575 -0.1099910636932163 0.8725796229592410
0.5292866010308601 -0.6199636821801213 -0.0685725298281047 0.9554676579713004
0.3150980507077501 -0.6188788848600315 -0.5709136425802839 1.3631988319324329
0.7237893419430876 -0.1057583185701050 0.3287929984695865 0.9417418168632022
-1.0388873926508377 0.7246372034301366 0.2421206441106974 1.3808423073752789
0.0456850167447378 -0.2312464521724066 -0.3300984077084371 0.6389397322893121
0.2694130339630123 -0.3876324326876249 -0.2408152348718468 0.7242590996431207
0.6224574738732065 0.2991503431127640 -0.1136339358001708 1.2284579531139324
0.7819269914760123 0.0051762204193525 -0.0672075885824672 0.9271841529861410
-1.4043844653492188 -0.3043265635321164 0.1808415243826379 1.5301408500708404
0.3000840176342871 0.1706997904151818 -0.1598072871126633 0.6232529064758795
0.3223734562389194 0.1284505526975821 0.0461733513124925 0.6052050466380529
0.9034320652430554 0.3050677961536138 0.3952326497217438 1.4522092352318476
0.3426412480543835 -0.5253019583721048 0.0615862223482534 0.8005342062959975
-1.2460733132974391 0.2202341622184911 -0.4568188720699972 1.4330395146430690
0.3600371146104703 0.0252864238201066 0.1613413633906011 0.6324667129552203
0.5433949506325851 0.2797813723335072 0.2338912863311426 0.8197425222766275
-0.0617391597234550 0.8343627937618442 -0.0102053982895791 1.3155941986315729
0.7063955372917766 -0.3974055677781830 0.7325472287398417 1.1988612359527937
-0.6446563775683218 -0.4369572259836613 -0.7223418304502626 1.1713275215865473
0.0320668499943100 0.3240212970019765 0.0672815435735338 0.5951990173160889
-0.0938060097177650 0.5103414967598677 -0.0774869418631130 0.7203951813154840
-0.1837811351748310 0.9742340921913748 0.8713752683766989 1.6653420575182012
0.4584164704555281 -0.7533008511707007 -0.9759272046857380 1.4049052359266530
-0.2746353352806971 -0.2209332410206742 0.1045519363090393 0.6155356627260599
-0.1195875046538643 0.6499890005879246 0.5179755241763413 0.9740649342468820
-0.0641936305209667 0.3242450916034502 0.3533997442003575 0.6912771232713191
0.7869824980198299 0.1591411063818163 0.0533139109684090 1.2998575899435150
-1.3204169806548760 0.2973837365080492 0.2754554560382222 1.4668097279918253
0.5334344826350376 -0.4565248428898654 -0.3287693670066312 0.9191156382363795
0.4841149227319876 -0.0038606660843294 0.0888482907960542 0.6971320981426644
0.3028675752878422 0.1630017724661457 -0.0355343798276452 0.6027254918008506
0.8307617595569904 -0.9394581474154846 0.3776362915003488 1.6559123919857606
-0.6096189819624764 1.1329526647796244 -0.0738683536280099 1.3799965789076911
-0.2211427775945138 -0.1934945173641397 -0.3037679378723390 0.6498739852774622
0.5417818187053509 -0.4789616540304438 0.2496859096712050 0.9104898895257397
0.2889799408516395 -0.4604964933850409 0.1279503818291439 0.7454225024600208
-1.0682103953695097 0.3818944667540249 0.5359021116559504 1.6234438391905457
0.9706910681101875 0.3089123224807747 -0.3764213254796523 1.1929283160752877
0.0975193272593222 -0.6908067892347995 -0.1594807861762981 0.8694108009050807
-0.6407299451359455 0.2471827413116697 0.1694383587900657 0.8625894202659425
-0.4274804502335642 0.1347117254423552 0.3664637528658847 0.7608544189246031
-1.0879903997369316 0.8895310839471144 -0.5594995043252620 1.8237985729514170
0.2726033048448050 -0.2316995995827048 0.2782219600094608 0.6701654315313508
0.8153870948921265 -0.6578314843644095 0.2812775443158012 1.1918189516881461
-0.5106265261276715 0.3036823406578015 -0.3119238520620687 0.8330521490440164
-0.5773638736092600 0.5858487432893129 -0.2475756522631932 0.9907464239074005
1.1168248420827747 -0.3168648315378680 -0.6210310296979227 1.6573308938707243
-0.5591674106026191 -0.2794286538632238 -0.1391024405250821 0.8085882975710725
-0.5576574314801557 0.5962934854010918 0.7601334702230048 1.2198637647291171
0.6518016923280899 -0.1337646357472269 -0.2656862646181959 0.8700830968557659
0.4650231497546848 -0.1831001957906411 -0.3553447650797267 0.7872477970149584
-0.0709285933767214 1.0300880172388442 1.1352230044253639 1.8421694130479755
0.0476415871427476 -0.5869461068747650 -0.7614945027416780 1.0818346968163475
0.0232870062339738 -0.4431419103640793 -0.3737285016836860 0.7617788463065904
-0.1506322326881184 0.4752761322684236 0.6012668223400981 0.9240217764774803
0.0797036393113970 0.5548118849704208 0.5339561820852660 0.9181476365704954
-0.5304971890321737 -0.2539055258446111 0.0625481910523564 1.1773586133760667
0.0598700712678153 1.0108133592364936 0.6163232952988106 1.2840948007454758
0.4706271177643584 -0.7569078333918826 -0.6788714863511669 1.2243295420493716
-0.2928390421036016 -0.0387943082414556 -0.0521680957573309 0.5776661609234472
-0.2376581469285720 -0.2151112176031555 0.1147162868096873 0.5996924524526195
1.5305188107050847 0.0975152092921432 0.1887117485494536 1.8518493484412932
-0.7506508875268553 -0.0372131333088816 -0.0983341100690938 0.9045706991538034
-0.7798679231782297 -0.0603020759832616 -0.0903776384803598 0.9293629085758174
0.6982823913070204 -0.0781767276971165 0.0908562925673652 0.8635286590443692
0.8322364193980644 0.1756919369892597 0.0978554559820883 0.9883206893969242
0.7770348937208477 1.0411244339515993 -0.1203449659439432 1.6558317725496037
-0.3257147024462299 0.1931867261965813 0.0526963058772451 0.6244237820185080
-0.4513201912746179 -1.2343111601481807 0.0676486600666981 1.4055274016028023
0.4391018672266304 0.6789908769159223 -0.0072621075830392 0.9474221758395326
0.3379330264942173 0.3621335570356770 -0.1130828583609040 0.7084095967100711
1.0394496797616941 -0.4678561420665999 0.8589578949289529 1.7593689212763970
-0.7186881657003342 -0.0782753187924921 -0.6675059724103093 1.1008727940058334
-0.3207615140613603 0.5461314608590919 -0.1914519225186436 0.8255412408887317
0.4314483356455435 -0.1755583646781989 0.2427392351980057 0.7208382081807996
0.6080013441161506 -0.2922977773884010 0.6162186597309472 1.0385307130955974
-0.9215805645913078 -1.1843744660573796 0.3255772588492096 1.8438235856648462
0.4717869936306129 0.6173817350307836 -0.2899461915361328 0.9651574733813860
0.4497935709606948 0.5669927310265960 -0.0356310673130768 0.8768018971246815
-0.3866132632138776 -0.6607058646051596 0.2462361945830899 0.9435842827581942
-0.5349673013774302 -0.5236686014522201 0.0793410642661197 0.9002393029066520
1.2268130142973854 -0.5075796540774244 0.0719085271178852 1.6732303429607824
-1.1609216698937102 0.1974127940203989 -0.4028423577011903 1.3389211628617250
-0.0658913444036754 0.3101668600570255 0.3309338305833051 0.6736314503484068
0.5832513770465956 -0.3345177609931017 -0.0465894801549147 0.8354471025963841
0.6435616372507899 -0.1730618930843228 0.1184980072728000 0.8377832403643983
-0.7136145361613841 -0.8901658535690162 0.5890286482438064 1.6400810453608154
0.3940407386514186 -0.2444213161362405 -0.2652582938959435 0.7273849230691508
0.3195737975090137 1.1345871697052567 -0.3237703543478629 1.3183169878286702
-0.2364270496346775 -0.3291199076952356 0.1797992131260598 0.6635227206434072
-0.4771874865267067 -0.5610459458737805 0.4092294351177466 0.9765583247174081
0.9805255567865405 -0.7529161825923270 -0.1802026486945680 1.6127630320614417
-0.1692781850935515 -0.3207545423695642 -0.0747748166428329 0.6171278910665474
-0.8112473716929889 1.0736707249618909 0.2549774653374009 1.4558920330429246
0.6009498024452408 -0.3427441650802681 -0.0203547889048461 0.8501444145060914
0.3795757543412997 -0.4101720175120588 -0.1598478597897220 0.7626186175553504
0.9672709944494213 -0.6771106154552847 0.5608599378209296 1.6603904171433348
-0.1105468648809357 -0.2724753860100915 -0.1416471947949172 0.5918144586258615
-0.8567241295684855 0.9495860014653762 -0.4192127430260123 1.4335780804017180
0.6473470418409324 -0.4452081218797734 0.3800994229711050 1.0027267903271999
0.3199239526084889 -0.2319024935755113 0.1807605148498246 0.6576636268161349
0.9384016786433843 0.6138717691888611 -0.7373543808652394 1.6838234869710089
-0.3181191619384338 -0.8226068473335496 0.2257737898137968 1.0356508151729218
-0.6202825167049506 0.2087350781446887 0.5115805910514425 0.9663086540269830
0.5026307098346291 0.4124683274284874 -0.3092756016956670 0.8730040834576513
0.4357709688087552 0.2014034417603737 -0.4280787791695724 0.8108194035133576
-1.3199731974351017 -0.3410246966420521 -0.2284126587141032 1.7163628715436148
0.8975031320131404 -0.2615141304723158 0.2362086960682686 1.0832419124264716
0.4224700654219602 0.6025388271143679 -0.0077960373541655 0.8861781722009525
-0.8017881197246818 -0.1048325858321212 -0.1227275830376687 0.9553183238853726
-0.5181850777104200 -0.2361921108099309 -0.1056850756764344 0.7610445476582420
0.2521400787982782 0.9066715797821927 1.1702025294024390 1.8186851604946650
-0.2798924183681958 -0.2628082143929455 -0.6548785274024225 0.9055334280931716
0.0277523395699016 -0.6438633653892470 -0.5153240020000164 0.9615643675845540
-0.0093230522913421 0.4865358616554604 0.5782658345034295 0.9027249966982172
0.2614631310896202 0.4201357181267323 0.5919366948990094 0.9159601637964480
1.2192466803518727 0.7786844939554862 -0.4518565000814212 1.8267616779731770
-0.7361219471563683 -0.4110507914270783 0.4520812305116927 1.0765373628110064
-0.4831247331958803 -0.3676337025284078 -0.0002247304302715 0.7824839154213349
0.6085657817591648 0.2469914754361114 -0.2046119797788383 0.8467231792411650
0.6106808985927080 0.5316930185193748 -0.2472445203025829 0.9800384987320120
-1.2443642357685349 0.6428449682695565 0.5476844287148610 1.8153556532389672
0.7439511568543792 -0.5358787380069311 -0.1396767996680204 1.0506454846080910
0.5004130789141557 -0.1069662302626254 -0.4080076290468407 0.8197818183238553
-0.7087581157139479 0.2760556851912456 0.3775563134265707 0.9822477070749807
-0.5356061200545870 0.3667892830783109 0.1701281152882903 0.8331079461639865
-0.4653421103310991 0.0584346263178681 0.6894900016597982 1.3152286971566416
0.2836786232401890 0.8631819227709934 0.1128535400131544 1.0401968539197659
0.1816634870909102 -0.9216165490888614 -0.8023435416729526 1.3303574050945064
-0.1239605899666427 0.0964422060448306 0.3394192229981514 0.6193462006352671
-0.3413815203644564 -0.0380075797269625 0.3500707786616468 0.6958824965213745
0.6317151167287558 0.6804231747720559 -0.1823677464361243 1.3984282770293448
-1.2730162520152051 -0.4584534314311619 0.0904787977732050 1.4431400901718903
0.6413011352860372 -0.2219697433408941 0.0918889486629193 0.8442145890076521
0.2043722130143906 0.2138857810155778 -0.1524531171879021 0.5953772434703491
0.4273429037143652 0.4665373937564781 -0.0299146292482222 0.8030510335589955
0.0940742962562423 0.4609726582331620 0.0822532319821416 1.1279880403401417
-0.7543703294504395 0.6541806361234022 0.2273084128184440 1.1368434340317155
0.6602960331941971 -1.1151532943565641 -0.3095616448005856 1.4209514817990563
-0.0660742404854454 0.2466181114556852 -0.0248167683864154 0.5563444530826583
0.1601485367416877 0.2143545467774768 0.1070700003685570 0.5716435872574832
-1.1147166118517422 -0.6753595912331987 -0.3121237877033657 1.6863445706174738
0.7501845259982434 -0.1137168980417143 -0.1147916622064364 0.9124705266410281
0.3645320858389001 0.7890764892749130 0.4269154499098021 1.0869678602576851
-0.5806035111130036 -0.4462141039702059 -0.2662852069886933 0.9224056892109310
-0.5341131007387385 -0.2291454872629928 -0.0458385807146723 0.7639388814065428
-0.6473758750499701 -0.3688976597995322 -0.3916392731703292 1.3293366552990560
0.5850874722729917 1.0916800624144418 0.5879999611980852 1.4572417931084563
0.0622884027769781 -0.7227824026149097 -0.1963606880277559 0.8992045077634022
-0.3520906512969652 -0.0414973084107742 -0.1661503246473346 0.6300894889184192
-0.2952852237530048 -0.3274003513887579 -0.2254889485229946 0.6992471663806369
0.5623779946181722 -0.7948928415241818 1.1715259699852418 1.8313636328151757
-0.2059615113662941 0.5239430602062682 -0.4564617917293026 0.8769326212089060
-0.3564164832519328 0.2709497813179136 -0.7150641782559393 0.9774867021518719
0.1539065502488191 -0.3670130821699238 0.4693866325567241 0.7889401877489197
0.4084714443693531 -0.4278797593542581 0.7021393374285178 1.0424234450662559
0.4351834603667750 1.1603576311750849 -0.5380159400596424 1.6907632836195829
0.2785280637922085 -0.2524077391698512 0.3838451663638818 0.7296174622242729
-0.7137115241589835 -0.9079498920052339 0.1541707736957606 1.2654022103270584
0.1811069612597268 0.6693641594022965 -0.3836647589829528 0.9336828888458450
0.2540764991070482 0.4909934717727885 -0.1543511810766896 0.7570803947737379
-1.0959677028427348 0.3415771253384554 -0.9515010204236158 1.8097436255384083
0.6701487071435605 -0.2268091148711186 0.8411998720224683 1.2049381184502477
0.4258189956991744 -0.1147680104673368 0.1103011484011475 0.6711012121822580
-0.6723355133694832 0.0817544771384362 -0.5475790198478998 1.0011386519241838
-0.4236321894732516 0.2598226482000192 -0.4039220005757160 0.8086049736142245
1.4747225080435431 -0.3468214051579879 -0.1980786008115077 1.8372922407938252
-0.5537599026698067 0.2367941584190053 -0.0028124219795780 0.7787466810925296
-0.9209626053737436 0.1100272467389826 0.2008910227910857 1.0697440342852131
0.8721241696144053 -0.2779168124194710 -0.0487461950747787 1.0411203070319413
0.6025983384291379 -0.0689045927385169 -0.1493324057367290 0.7961719337618840
-0.0158644846891601 1.2146580796482438 -0.9209306606642949 1.8362811074032324
0.1549111005867727 -0.4743074368710873 0.3657851800703809 0.7915053834588535
-0.1390466158976125 -0.7403506427771565 0.5551454805939140 1.0579964653088285
0.0927965784627031 0.4662795929671955 -0.3840662952067238 0.7856537171266083
-0.1086610631518632 0.7483784866810482 -0.5368643654575711 1.0506273902766241
0.3337553513889534 -0.2213292979551398 -0.5194650127012956 1.2038754689779176
-0.6395133857221719 0.9334047621252382 0.8572668602695288 1.5029455314552433
0.3057580343332185 -0.7120754641700984 -0.3378018475682331 0.9789619557377530
0.2571719738228163 -0.1067598691636527 -0.3392678653298521 0.6605715393189735
0.0765833775661371 -0.1145694287914871 -0.1801971473714435 0.5433039296589441
-0.8304085778815540 -0.6767350738176590 -0.9638394723890831 1.7648787365598060
0.3994247619169615 0.5715847099562994 0.1445769247376940 0.8665267962295553
0.4309838159644894 0.1051503638613597 0.8192625476513890 1.0543774233910426
-0.2577600558103253 -0.2822881771501327 -0.4440181822710471 0.7661566340157679
-0.5726485220712286 -0.3944468966675264 -0.5198212901180360 0.9987221025440380
-0.7865777352203426 0.0732375577652619 0.1132086060358154 1.2981239696006062
1.2973985071675485 -0.2004009984430193 -0.5911857629938327 1.5220450168352913
-0.5108207719472058 0.1271634406777573 0.4779771569580172 0.8656139697350163
-0.4443980474355127 0.1649167693857537 0.0873022679004249 0.6899462527608130
-0.3421796877848299 -0.0916792116204918 0.0259063381353905 0.6081777168397932
0.7872798657310153 -1.1515885720563936 0.4711006084790918 1.7875743503380912
-0.4978103291271280 0.3922539201189741 -0.5012060139584571 0.9468910763078756
-0.2894695366041232 0.7593346519374197 0.0301054054793653 0.9513175295466837
0.4651190405023527 -0.6349817061697111 0.3576674267138668 0.9955804625790654
0.3221608252286626 -0.5166068658866827 0.1134331817652250 0.7919938877590258
0.9010915816192027 0.6198664839738316 0.6160692622538508 1.6172804636085476
-0.6212250599951682 0.2116476000616974 0.1081946856052435 0.8283346860418765
-0.2798665216242230 -0.8315140840355288 -0.7242639478590944 1.2401678065378601
0.3768989147306769 0.2018169377049427 0.3623525630003613 0.7468595775054998
0.5241926668885258 0.4180495462688888 0.2537166992534896 0.8704208861030477
-0.3588897637080189 0.6437161738534043 0.4970509580824503 1.3509092081171536
-0.2752711964357439 -0.4241845034306667 0.6208507462473845 0.9406802612911687
0.6341609601436452 -0.2195316704227377 -1.1179017043298347 1.3941934867734309
-0.2086491657790046 0.2435910184674103 0.3379494259262236 0.6788209288694104
-0.1502405979290143 0.4001251553859940 0.1591015321562266 0.6720882792477433
1.0276903934160064 0.7995308272903240 -0.1629266477850597 1.6600871672044626
-0.1513673313860751 -0.7227696574984529 -0.2693898428115895 0.9282219101865812
-0.8763230620299313 -0.0767611697918711 0.4323164905966492 1.0974738787798706
0.4473744653660617 0.4715957765988815 -0.0081078220916029 0.8162899030831758
0.5803159280499447 0.3279350506914425 -0.1548188256934568 0.8437972641212869
-0.0797710412703243 -0.8649731126288370 0.9965295733149178 1.6689029926368484
0.1976951228309024 -0.1109728008604316 -0.0163344461909302 0.5434906793895354
-0.1179240815605891 0.9759459134892686 -0.9801951271239876 1.4733892841455452
-0.0297314049901618 -0.5916335604463620 0.6075233392378612 0.9816902843243633
-0.0500396362801625 -0.2733395521824751 0.3890062340770566 0.6872127083124852
-0.3905905011751461 -0.2726438361597892 0.3609006860957503 1.1817015603827596
0.4574239702749330 1.1993396751255641 -0.4529626289318816 1.4479449120910155
-0.0668334690997869 -0.9266958389657749 0.0920619428361314 1.0561364836971392
-0.0779675268756522 -0.1889898522028115 0.1909526358536124 0.5674292810132275
-0.3126229742994939 -0.0836539839569777 0.1699480502421378 0.6142722793695320
0.0589581820336461 -1.4851822908946226 0.0443411653956601 1.8073562426388969
0.1088352460541995 0.8542159422550542 -0.2713191930384459 1.0290097529306519
-0.1677934280880336 0.6309663486395687 0.2269780276427858 0.8494169606186899
0.1588061270923915 -0.8133059027130731 -0.0240220628916005 0.9648730057497616
-0.0998479450587454 -0.6718763881815496 0.0683632282872605 0.8424832368891353
-0.3511106180897288 -0.0909852648197039 -0.0014219187861547 1.0799384985136695
-0.5262041217370109 -0.7762006916869904 -0.5175674327282711 1.1793944714379136
0.8773147398267059 0.8671859565066942 0.5189893515144258 1.4264499862224385
-0.1801022033952138 -0.0025740131262540 -0.1151719741999692 0.5379823353805434
-0.1710084146945150 -0.0884112516934499 0.1137500554138145 0.5419561631331261
-0.9158736558603073 0.2424723401670203 0.4895270576904894 1.4777657295116948
0.8198182180423886 -0.7956845945942761 -0.7044313851079398 1.4300896620012840
0.0960554378179186 0.5532122544272559 0.2149043274174504 0.7779275646579351
-0.5768344320158116 0.2358915603752919 0.2625551779969768 0.8372783241176843
-0.3390392238444956 0.0065807797917284 0.2269718796935127 0.6404874053940105
-0.5606443029000622 0.5159036610198394 1.0888241098393392 1.6734183822229487
0.4302752289208649 0.2960401737881505 -0.5979675543011050 0.9349110831759704
0.1303690739791973 -0.8119438348079900 -0.4908565555382342 1.0774534907719948
-0.1547435455435742 0.2596714933436122 0.5576107530017798 0.8037546774575621
-0.4059007573564880 0.2562321676762272 0.5312133568375594 0.8696637047653865
-0.3882267845487084 0.4681160776236810 -1.1298513319441810 1.6379802320867056
0.3436681339663119 0.1959846891246427 -0.0170151306957547 0.6328698757855070
0.0445586505823965 -0.6641007667483237 1.1468664626399356 1.4149328482987009
-0.2216230350582103 0.3342602325405912 -0.7266162815531625 0.9656784525263300
-0.1666037494904981 0.1338558450830898 -0.4032350503910184 0.6723017795603757
-0.6342806097549947 -0.9035461445429891 0.3999795291454384 1.5551688575803126
1.0721243775554314 0.4790111285536672 -0.0592732570728141 1.2751990595824241
-0.4378437678004365 0.4245350159893218 -0.3407062720726243 0.8554150390081773
-0.2195978675713248 -0.3548312218930323 0.0855555011041908 0.6520468875550014
-0.4146827421836700 -0.5487149226499568 0.3144240280412476 0.9031219700253114
-0.4578032673143970 0.4881640230138035 -1.0999029470694346 1.6357130548463150
0.6637870737429695 -0.7301049862459065 0.5022296349097265 1.2122780855562583
-0.2059838064287610 0.2419409632321029 0.5976733121597079 0.8377918157857086
-0.3133822097907084 0.2118697571335509 -0.6404111069756205 0.8927152791724119
-0.1444210575236887 0.2762942658802526 -0.4594918400938139 0.7429977756739030
0.3982825011282178 0.0779494346275878 -0.4472214198638975 1.1807725011169099
0.8247977858936131 0.3823812383131464 -0.0117033665946401 1.0345824027826640
-1.2230802870218311 -0.4603306729407342 0.4589247864585376 1.4704280522713404
0.1371140092190899 0.1368090622995450 -0.2410406154571821 0.5825242738979988
0.2611684919091280 -0.0588596276719573 -0.2061808044067154 0.5982482272189111
1.4053465489427930 0.1164159368317411 0.5588952045799440 1.8255940729448055
-0.8549910252653679 -0.2548042882805867 -0.2733100982280989 1.0556279025930273
-0.5503555236774300 0.1383883514488456 -0.2855851063518451 0.8045609806335267
0.5259385909721688 0.0630003961424863 0.2941803127260971 0.7815622100079589
0.8794079579706242 0.0534155406892548 0.2647148918538469 1.0440318629368466
0.0451350448074527 1.2876312968528651 0.3058571571964959 1.6701140166510435
-0.4492452622338761 -0.2638286744712768 0.1368872191717028 0.7306722700461655
0.4041102174264233 -1.0238026223815884 -0.4427443763681987 1.2849966694737052
-0.0100045294571804 0.4505712709374725 0.1312697240186474 0.6812219033301855
0.0551395742646331 0.8370600259153926 0.1745874331778485 0.9888921133208580
0.1750968513220401 0.2555877475626280 -0.6083837477129209 1.2274248814228068
-0.9307946679107048 -0.8036405629010233 0.3694324613350548 1.3756504614065121
0.7556978165886646 0.5480528153383952 0.2389512863778661 1.0827076133415952
0.1701941513357908 0.0320916358891745 -0.3244830266289357 0.6156314945990239
0.0049026999862493 0.2234961116734535 -0.2839007210839852 0.6117933868237828
-1.2867947057492397 -0.0201680012562137 0.0562509491078909 1.6484029927013699
0.6915838361986487 0.4503242552698285 0.4003057512249248 1.0416534030896825
0.5952108695505905 -0.4301562540136148 -0.4565567003328158 0.9957265603798988
-0.4341830458200530 -0.0076009162931802 0.0832071849749131 0.6627315498499551
-0.8526116599291867 -0.0125670849630335 -0.0269562358670222 0.9856714428514149
-1.2766892321793342 -0.2699670433223581 0.6478841261598964 1.7777908681856833
0.9635286599450281 -0.1238450512969502 -0.3991282858335367 1.1604936208991516
0.3131605722343060 0.3938120946193083 -0.2487558403263598 0.7474984670860794
-0.5055468514105352 -0.1123847088155344 0.3836455200098768 0.8118551638681046
-0.7711423807687989 -0.1575823345068237 0.2642386061500197 0.9659357043175787
0.6981250947328985 0.7815466894904690 0.4799746639326520 1.5342393093409157
0.0105484872223007 0.3700129940431721 -0.3420341580045201 0.7054964435873031
-0.7086735819551992 -1.1515596835336410 -0.1379405059281319 1.4460472032426952
0.3885243462972737 0.5294534387154072 0.2948466967764647 0.8728823897652453
0.3096007484356248 0.2520932507750619 0.1851279671561873 0.6613569195756703
0.3126001859790992 0.6111690464692691 -0.2845849265998520 1.2656242572020742
-0.2889908019880517 -1.3749128042771377 0.1047999296434751 1.4928499283522096
-0.0236093839910474 0.7637437578078687 0.1797849969563769 0.9273087706166300
0.2982914351146931 0.3196540754667818 -0.1652685669465088 0.6798435024142385
0.0143087508644061 0.2915149710024872 -0.1193163596533432 0.5857807547878356
-0.1814023983958828 1.4675185806218591 -0.2464751649768482 1.8057088123933414
0.1816394752749960 -0.3366543712753424 0.0155724417976538 0.6247307787755565
-0.0002370768792530 -1.1308642093465167 0.2309027231791944 1.2553433650149015
-0.1541185185103072 0.7852154529706414 -0.0563885948438787 0.9419195715607406
-0.0272838798855756 0.6823031276512177 -0.1900865701329694 0.8637892408326008
-0.4159445258397357 0.3132455396803727 0.3458310231989624 1.1920713633543856
1.1128888592801669 0.4573834591874082 -0.0304599169234968 1.3009096927596999
-0.6969443334405865 -0.7706289988677808 -0.3153711062754656 1.1928019000711363
-0.2896648104154455 0.2102724351563086 0.1035474385112355 0.6185137441729310
-0.1262797154242903 0.1029731045240641 0.2422835846877269 0.5735576191814545
-0.2555535847579805 -0.5495920378496828 0.7786648438643102 1.4204077174851102
-0.5439793289651811 0.1060508758567597 0.2693359189148289 0.7895689432583389
0.7995329137231616 0.4435411619929231 -1.0480007627791392 1.4758062954274651
-0.0712083599279277 -0.3501338974358724 0.2914535725293074 0.6755194608050575
-0.1843452248300528 -0.1994581404138104 0.4872112713350029 0.7448882566800527
0.9222402147135881 -0.5603014166586284 1.1028339605972608 1.8499139771927422
-0.4660273185943768 0.3467256808566359 -0.5626881384028888 0.9474888288893285
-0.4562128961192112 0.2135757358019926 -0.5401458221943723 0.8883801500888431
0.4676683298906238 -0.4169876754281520 0.5536672336971871 0.9710081226439636
0.4545718848229643 -0.1433137412304764 0.5491667269000738 0.8789058545487786
-1.0697898908390797 -0.2569708523340423 -0.9935853089713009 1.7989146976873762
0.2978403241598002 -0.1310046528771520 0.2376455148448323 0.6372310796139369
0.7719495666792795 0.3879755052111943 0.7559397941264685 1.2496371788696017
-0.4367367222591335 -0.0437147765845088 -0.5353045907271521 0.8502458064842477
-0.6330531685799462 -0.2132560757495335 -0.4582807182441488 0.9486688912031285
-0.2463646776199772 -0.8066314846869374 -0.0058717551395245 1.3231992937306398
0.3688379178104619 -0.5579255014587019 -0.2826063897080324 0.8780123157595850
-0.1224732401904846 1.3645569861456393 0.2884781448475569 1.4845713466806891
-0.0344226643906759 -0.3618648177144238 -0.0938633148530316 0.6202083265544294
-0.2119420132293013 -0.4447666669725135 0.0879915597135071 0.7029909671762105
-0.2253005158671582 -1.2526686264064608 0.7952587178655752 1.8136818625382314
-0.0602936594250438 0.3093845603521707 -0.3565254245288666 0.6856978126081907
0.2855941752921193 0.9432840660542902 -0.4387332933367086 1.1864032810321177
-0.1476285542732654 -0.4493210557476862 0.3176662813951198 0.7538650063767605
-0.0776719615938928 -0.8033475706587747 0.4775924364704554 1.0598168561614709
0.0338309709096406 -1.3907650265407465 0.5880901284005529 1.8236446759920073
-0.1257129986358067 0.6311324098229399 -0.0690924693998661 0.8140163551254294
0.0918820277261661 0.7596326167178066 -0.5189976590006866 1.0481219250534772
0.1210939723964145 -0.5737072810414697 0.2287253414974045 0.7998975288390657
-0.0872630014867739 -0.8170577454992768 0.3593647869031483 1.0237471471529416
0.0846052516842351 -0.7475913314241848 -1.0647628999633414 1.6572708005187580
0.1877567431048260 0.9571837990690729 0.8670553107699972 1.3953334053354747
-0.2723619947890610 -0.2095924676448882 0.1977075891933441 0.6331787503166812
-0.0248038555525090 -0.4210977981447213 -0.6936298477550117 0.9501462692018757
0.1094091072367441 -0.3264935332794635 -0.3711330522083297 0.7071245313168821
-0.0146743099481277 1.2412714434458731 0.4694816518218917 1.6762060091432276
-0.2979584130790418 -0.0278269391155281 0.0171362264509777 0.5775501580391952
0.3126327230271694 -1.2134445043303450 -0.4866178782728693 1.4320267889884912
0.0567241514889026 0.4335263436047508 0.2086635631594152 0.6916792485544320
-0.0713984614370303 0.8077450998411224 0.2608180886624765 0.9845267605887955
-1.3208046534539042 0.1752161452019435 -0.3956270838802340 1.7249206451686314
0.3339711491078910 0.2783500339383976 0.3960558663827630 0.7678493989417152
0.9868335043460134 -0.4535661791403411 -0.0004287825025290 1.1930129120605677
-0.8725802303789953 0.1213896309253754 -0.2290979809205881 1.0355358835575663
-0.4482244230749089 0.0538265142765681 -0.1665291029596458 0.6893847616110650
0.7892133519856712 -0.4379709460145182 -1.2107822019108374 1.8268983655927542
-0.5082494352189328 0.2280002467539056 0.9304995500154963 1.1915737467014986
-0.2809639167667384 0.2099706992606126 0.2802826518953411 0.6673108438766616
0.4814213242727328 -0.3662519279265208 -0.6552585471704093 1.0193074659509174
0.3077920277129384 -0.0717190180879974 -0.5555236547404282 0.8075908996418367
-1.1016144179378506 0.3474651527942019 0.2658847243637048 1.5680715625635502
1.2596605186057726 0.0627362858237784 -0.4573121967007380 1.4295215595692783
-0.1580461006679342 -0.4102014386179803 0.1914274723370332 0.6881898340392315
-0.6348766460752902 0.0587080087305080 0.1639070477994542 0.8228593358941997
-0.4667377718625606 0.2887571440636938 0.1019776765642506 0.7452122266693506
0.6317499447281476 0.6973494409700823 0.4170283959233119 1.4495079530074122
-0.1050951691949391 -1.0955703781494910 -0.6623486577896276 1.3761330505701301
-0.5266547755332086 0.3982209371794087 0.2453202618663157 0.8601419525933719
0.3692023969970074 0.4904970281736963 0.1811037623342497 0.8083398404484242
0.2625475477311403 0.2068524127963861 0.2359246335890622 0.6411681125589880
-0.2048605259421027 -0.9359915732192907 0.9464754480818911 1.6892541514962360
0.1302206119188252 0.5005093026953499 -1.1042283591637270 1.3154863052740291
0.0746399140232775 0.4354822705239408 0.1577529110818359 0.6810424994006486
-0.1229356402974201 -0.5680814310925193 0.6452543631535774 0.9989493768480914
-0.0819248856446826 -0.3679101421267714 0.3012210849283137 0.6903047746481448
-0.6324427439160598 -0.3947884454351349 -0.5454357361499904 1.3737958912241854
-0.5439158083232162 0.2268237007730841 0.6692734919289344 1.0192827797544921
1.1763585522392477 0.1679647446620507 -0.1238377557789440 1.2927042851948671
-0.3462581275927723 -0.2640656752982375 -0.1754514927780574 0.6812676261512912
-0.2861846163232875 -0.1307227701368973 -0.3699842433719329 0.6925282650728943
0.0933074798911246 -0.7039676600596004 -0.3953006552518509 1.3036708397809496
-0.1930510536464078 -0.4053624050496020 -0.5300648640522003 0.8522165975696926
0.0997435737552826 1.1093300651092024 0.9253655193040512 1.5298955188203274
0.0997139979670418 -0.4793679487383707 -0.1663849674576720 0.7149387731778820
-0.0064065180759172 -0.2245997113212297 -0.2289156877941790 0.5887320666030674
-0.4742715343993186 0.7121519056904957 0.3593766491932245 1.3719753677198903
-0.5464949145770160 0.1748541250845081 -0.4335321577016296 0.8722945424614552
1.0207664489763346 -0.8870060307750038 0.0741555085084050 1.4415130459895682
-0.3043641753258599 0.2936389900309609 0.1182840592291400 0.6607340665388127
-0.1699073590734587 0.4185129156595347 0.2410925899640845 0.7112413011810775
-1.0907674733676114 0.0319174929954262 -1.0467948493189585 1.8251993647507996
0.6403525313878629 0.0652954289556329 0.8062613511295991 1.1437172745708055
0.4504149419797486 -0.0972129219510591 0.2405334981893594 0.7168663168493088
-0.6399889620708896 -0.0261715293891302 -0.7013845501648558 1.0704803071808924
-0.4507785112967219 0.0580890223845565 -0.3454102991541027 0.7547190575699072
-0.5031483548601040 -0.2598737778483148 1.2381994291999621 1.6991899297563537
-0.1338193218930873 -0.2747565364627906 -0.5487428871027556 0.7988958015384875
0.6369676767531911 0.5346303143111055 -0.6894565420972065 1.1876972248760989
-0.3582736129966915 -0.0750724079191400 0.7095960842923699 0.9387435386582136
-0.1448747418634126 -0.1848013699291748 0.5286033449075923 0.7604463910981401
1.2670195956931851 -0.2734428074957168 0.0709405509187380 1.6503227693844646
-0.5290431801940580 0.0251605669293658 -0.6278700592485403 0.9583619004675712
-0.7379764154991272 0.2482822405663510 0.5569295083298024 1.0770982863188778
0.8176665402214971 -0.2074013764940088 0.0635557401241084 0.9794642486589932
0.4493530554716880 -0.0660414310017080 0.0073848107946295 0.6708585207254715
-1.3047389726676415 -0.0229823560657183 -0.5457406433497255 1.7469666161610573
0.7982961396478649 0.3777595130903478 0.0669586078138257 1.0139918203793883
0.5064428330195739 -0.3547771570246295 0.4787820355358998 0.9248245196491441
-0.6184198583522423 0.0213925853010801 -0.1243564817916807 0.8013003674046807
-0.6863191143153990 -0.0443749413667984 -0.4213841615580448 0.9456662487563765
1.0054063769405288 0.3875841906965105 -0.7886781072048907 1.6827958443382827
-1.0466114156946060 0.0798201169075755 0.5088893986069911 1.2666696913043241
0.0412050387540772 -0.4674043076040860 0.2797887085978997 0.7363174205283075
0.5329136543887817 0.2809992449208757 -0.5402654991000785 0.9479247483460725
0.4724927225517471 0.1065849457756347 -0.2484126081048123 0.7348710959922101
1.0207443089142891 0.8735150900832802 -0.7387571064203238 1.8409663134648522
-0.6690584449493101 -0.5765726575402872 0.5022017245855660 1.1296011617764807
-0.3516858639649788 -0.2969424325429930 0.2365553818347577 0.7152154809295809
0.3813659295612490 0.4778673942133065 -0.3138469390520310 0.8461761637884044
0.6393783793530401 0.3956476958699736 -0.4249101673682927 0.9947901496764477
1.1341821641504022 -0.2855724218464962 0.8843589680507069 1.7856979892198996
-0.4626661896491569 0.3620162460480189 -0.7094239332239908 1.0450430913637803
-0.6715159745012456 -0.0764438242015226 -0.1749350348267161 0.8550418755872340
0.7114888014889547 -0.0801873911168635 0.4889979873509209 0.9977386152197225
0.4226933626614476 -0.2053850307296327 0.3953609806997860 0.7879593740001770
-0.0447920691441232 0.7064977166145194 1.0833756717368481 1.6538111537459446
0.6132873472112436 -0.4032818744999153 -0.3995628303101237 0.9706312771820239
-0.5684952780671203 -0.3032158421146041 -0.6838128414267243 1.0613405252429455
-0.1460782556261158 0.3733374940148615 0.6569747697709958 0.9143591032240661
0.1012861864819926 0.3331602225996579 0.4264009019658522 0.7394520505218785
0.1015913298679457 -0.8834471004456381 -0.0459962955224331 1.3584540252772677
-0.4362149704640778 -0.3779519253854033 -0.4052927732434206 0.8608776746622324
0.3346236405952936 1.2613990258310415 0.4512890687658537 1.4664512563086780
-0.0843775162463706 -0.4111135732139803 -0.0551169185983285 0.6502990007476931
0.1859688461143163 -0.4723335272316579 0.0091206230758954 0.7081550245295746
0.9353113846810852 -0.9430566850916576 0.0901262729832900 1.6790201760603394
-1.0625065511029865 0.8440600904481770 -0.2454910843865019 1.4646980781944137
0.1271951664219013 0.0989965946434806 0.1553648114032119 0.5420647019161609
0.4633178458737767 -0.3225890425888513 0.0972269732201686 0.7562388388294162
0.4719935388073085 -0.6204676425028063 -0.0071007002368786 0.9227813372309231
-0.1133076770529867 0.5961910642684685 -0.6236595663353555 1.3391751537144279
0.3521190893126374 -0.3474781254710375 1.2784592075827053 1.4570188147451035
-0.2388114122596507 -0.2487129387974309 -0.6547996412473501 0.8895889877113824
-0.1339632711243260 0.3183652959165653 -0.2124401585627403 0.6388665126249254
0.0206555940713393 0.2778257683519031 -0.4112194077726151 0.7003086410895025
-0.9068792714796904 0.1020441282762992 0.7274205437738945 1.5509041696021701
0.3445656066378112 -0.6429927014566531 0.1108478773175303 0.8877889972504783
0.5623136648418793 0.5409485731803539 -0.8382684210914250 1.2470897893182658
-0.3566624607632461 -0.0347550360869300 0.2434326874353626 0.6568047480736576
-0.5502168107164442 0.1367991643632292 0.4839878563385319 0.8940994215285125
0.5793492705675055 0.5368739844896993 -0.6186270796750561 1.4280589776469754
-1.0559512335474486 0.1690696478291124 0.2346232809328749 1.2009923470747619
0.4766019629799428 -0.7059436323188116 0.3840037987421813 1.0567316314491766
0.3887433388166320 0.2105249282229830 -0.3652263776969414 0.7566699519422083
0.1906059317508735 0.3263490562667163 -0.2534007019781148 0.6713890257047670
0.6926145163774917 1.1699989249910798 -0.5586514890770725 1.7882884179121321
-0.0254121183687345 -0.2284693603688046 0.2777469302271198 0.6113136363331885
-0.6672023980087572 -0.9415295646222752 0.2809045588499527 1.2861809019255936
0.2139559837796280 0.5728201896049387 -0.2138740699199635 0.8144686800161661
0.4786585325978637 0.5971787353861411 -0.3447774191571090 0.9738197378959660
-0.3008725922625567 0.8147618204838039 -0.5072461749354353 1.4318928516485681
-0.0515453017156562 -1.2213239739179904 0.7082253616858821 1.4965257467413948
0.3524178939782130 0.4065621534341865 -0.2009791867504467 0.7573643577809513
-0.1385388745635563 0.5114089785240509 -0.1770801980796889 0.7455243389462828
-0.1623337176990004 0.3033528419597530 -0.3301659768557464 0.6863685127022852
0.3730463561845507 0.8743801927698612 -0.7253490060086010 1.5739436471719395
-0.3229829073347262 -0.1361186692991438 -0.3632301475611081 0.7060448788769922
-0.0500634488502168 -0.7382615234707175 1.0885791535697091 1.4057944301581324
0.1629321430548062 0.4136278824227820 -0.2027684927900759 0.6945984094103194
0.2101142131297445 0.4607523103470793 -0.5225805132185252 0.8793452377616200
-0.2139027688762750 0.5908002968025592 0.0199529198208788 1.1997571780482521
1.1588749361594679 -0.4807129804085027 0.2714155503486976 1.3753034096125563
-0.9449721672831929 -0.1100873163940564 -0.2913684701695765 1.1107223685101058
-0.0255747416198938 0.2965848503437697 0.1142023816199346 0.5876868257490768
-0.1883280272563812 0.2942154464587894 -0.0942494617990557 0.6120703522991754
0.2064418127654220 1.1838240782853178 -0.0433626089607868 1.5839994159151738
-0.1286901203849419 -1.4471719480109884 0.0720217020230801 1.5361549075812346
-0.0777516923804801 0.2633478697256706 -0.0286590930622933 0.5656286326745056
0.2348023881716476 0.7292153002117674 -0.0091301685085553 0.9114205702418844
-0.0283605754062257 0.4546087780735504 -0.0342324404522315 0.6725788456732893
0.9977765072788751 0.0702927434980732 -0.6819422334668230 1.5842129803731113
-0.8278810261090721 -0.6682545328881908 0.2552371498944721 1.2003391592097117
-0.1698954811698031 0.5979617893901176 0.4267050835723510 0.9012308165880909
0.5890865642623234 -0.0711904119853842 -0.4071440747296909 0.8726822634095031
0.4086899430165516 0.1414831554834574 -0.2747981587371321 0.7115307169636083
0.6304279408122400 -0.2648885221441385 1.1295133437682860 1.6621309740436141
-0.7937874561128242 0.5282225498535592 -0.5696940121968270 1.2154776162142120
0.1633595153005842 -0.2633340277094207 -0.5598193315714588 0.8081743659130886
0.2608577961252604 -0.2223262663600291 0.5405890850969763 0.8083497372844903
0.3695701446869795 -0.0425622557841095 0.5889242586713096 0.8537812367591237
-0.1021089341178851 -0.5941661229592589 1.2477089688320246 1.7216484673391523
-0.1937211464909369 0.5541818025392795 -1.1449470149564160 1.3781385997968623
0.2958300806088220 0.0399843204199794 -0.1027619538756086 0.5859958890348995
-0.0191993820381283 -0.2248021667088383 0.4205094980840499 0.6866220566916954
-0.0829095520797567 -0.3693639562504206 0.8271994707479747 1.0350264106474569
-0.2946290850599715 -1.2374474308271419 -0.1086502171918173 1.6340310335001202
0.5472904102813411 1.1446209721746952 0.3993503158111791 1.4187605922760722
-0.2526613252213694 0.0928264586524466 -0.2907000986193617 0.6329913303947216
-0.1927838662234704 -0.4516516580890416 -0.0261803157954360 0.6968193658293362
-0.1018452188365012 -0.7857957727381002 -0.0824699013963813 0.9372116676707839
1.0633392168131419 -0.3272278671591362 0.6859935019891213 1.6604536843720303
-0.0308456182934127 0.2847508001257054 0.1700188447744761 0.5955315761969131
-1.0324935985197292 0.0424770670334308 -0.8560123467635974 1.4297976956019702
0.3386658244582295 -0.1095794309038198 0.2699257068699460 0.6657920545421200
0.7246733923549125 -0.2176484362553165 0.4160677951191753 0.9946616298299104
1.0990030865436171 0.1597193524584608 0.7957420145877088 1.7073982515394419
-0.9880477452986643 -0.4591963914159783 -0.6902028341806715 1.3810128911488344
-0.1109553412449528 0.2994770389575175 -0.1055391804070372 0.5973718134826380
0.6027368094906415 0.0443895649810798 0.5574011704280996 0.9589969447906403
0.4962662770529757 0.1153297874773810 0.2383408441596092 0.7484013067488016
-1.4082412190804900 0.2452530147176392 0.4921015795523693 1.8228593948105720
0.8487783150690066 -0.1257779990700278 -0.4960792656671663 1.1072742891150849
0.5594629040114836 -0.1194750156476114 0.0039776861147969 0.7556492722452576
-0.7472057813035512 0.2511799390902614 0.2613345031284867 0.9661369179724222
-0.6610354377769390 -0.0059269243726222 0.2307670764238826 0.8567224768381498
0.8498271316272648 -0.7264611725106036 0.3778753537686861 1.5556783347640746
0.3209357846954113 -0.0044138645895585 0.0804585356696796 0.5943145769622209
-1.1707629163227260 0.7308750371001621 -0.4583338894383657 1.5357900444492270
0.3083274053397573 -0.2653765806080352 0.2140545679331999 0.6745567854531069
0.5414997262875075 -0.4610845919025685 0.1638207858354861 0.8811215493109675
-1.0157672064758743 -0.0145913585570629 0.6882992758703609 1.5944222852732484
1.2427171020299923 0.0456704054268829 -0.7658244852429499 1.5416341018984721
-0.2269498955541180 -0.0310790468698200 0.0775252093725890 0.5497265689991938
-0.5418190045985993 0.0484221571863605 0.2355248622037526 0.7714282079985759
-0.4739482018772749 -0.0630135157434234 0.4527744136666083 0.8229940772746726
-1.5203805344438615 0.1060598399714862 0.0087931706419691 1.8345206266110898
0.5589576550121023 0.0819948897766991 -0.0632345630289476 0.7529092988777489
0.9614228794317540 -0.1880547297481854 0.0544413923869784 1.0983530306825491
-0.8905029158388832 -0.0350893883529438 -0.0477583353538056 1.0199139901076479
-0.6298776186049783 0.1411492283244300 0.0565515059957747 0.8146066365034419
0.0631517259396635 1.4296477901133671 -0.3872567099579716 1.8012099898133254
-0.1995511081206189 -1.0828554937406356 0.1264576785977361 1.2133034203700950
0.1363993821809555 -0.3467922963727316 0.2607990313602356 0.6712695459874937
-0.0463510690355528 0.5212248812728708 -0.1570351837578262 0.7363428737521067
0.1095027949752162 0.9084229088404963 -0.2302215262001454 1.0648671160612186
-0.6067899555190924 0.1578745581227890 0.5947122748510976 1.3379458178291563
0.1754442957309875 0.7734035356762072 -0.7505753069331381 1.1983380164243205
0.4313456597880215 -0.9312780937989962 0.1558630320820406 1.1494991219251380
-0.1810774166801817 0.1224587944203363 0.3346575494808070 0.6352148006115326
-0.4257125388389108 0.0354157637024528 0.2600547253702905 0.7027310172176239
1.4374054857938980 -0.0804981130268458 0.2467241282153094 1.7841745850130373
-0.3021745383435760 -0.1897993853241176 -0.1689259829411053 0.6321283305897504
-1.1352309474503219 0.2702974983509634 -0.0777981452742041 1.2694800405681261
0.5229781780455421 -0.1042399760544750 0.0737548985574045 0.7304306351118396
0.9144273077483559 0.0237418630276292 0.1729692296579049 1.0537439499011978
1.3384317044267129 -0.6429733556880509 -0.1247521966911703 1.8065522614533607
-0.8555874722708023 0.4686457419914701 -0.1736430670476060 1.1070355230326512
-0.4828442321559151 0.1743276136965808 0.2983952637387763 0.7721951716853154
0.7162847742873337 -0.2015401700104461 -0.0382137655114977 0.8937894551891201
0.6221469301393793 -0.4414331856776048 -0.0865384311796727 0.9127628062642404
-1.0748881624689435 -0.2556421324572352 -1.0517129620950403 1.8338233659394705
0.5243909238335950 0.1561435281271056 0.7368960772442029 1.0421609527140834
0.5504972386353486 0.0994986043301296 0.3148168848508375 0.8097986375173604
-0.6503053816537170 -0.2368908439484716 -0.5672813611652781 1.0220271446536713
-0.4245827808152265 -0.0187512885087636 -0.4844316009297623 0.8117962212857991
-0.6053673941842708 -0.9604861000798990 0.9332170245191784 1.7954867886959895
0.0581550423668506 0.6525974244005835 -0.6361972242801911 1.0381374166254607
0.5472123518173773 0.3078886756793153 -0.2970198002389874 0.8521587508534284
-0.4252782332068437 -0.5599759673580547 0.6465325554980312 1.0752469415468888
-0.1800891609774271 -0.4005101327218443 0.2866844690211472 0.7202398471491007
-0.4240173858356624 0.0174042310931841 0.4499035118001671 1.1923781872925172
-0.5826713488939895 -0.6668373068179760 -0.6171734234876839 1.1869279293936514
1.0066887347294384 0.6494330757247919 0.1672699116875167 1.3064768395044246
-0.1367725798310787 -0.0859906343520490 0.2654028814902609 0.5833153500656828
-0.2872448060045836 0.1033948654452330 0.1845006303099062 0.6090628372268344
1.3116063195125252 -0.1108781272180432 -0.7898730586294885 1.8417416915039084
-0.8320016059135591 -0.0058247140012187 0.4858767556607205 1.0826143364819831
-0.4796047135992343 0.1167028412192619 0.3039963029687680 0.7614269282097467
0.7664073975481200 -0.0663787192522476 -0.5503103393210207 1.0669324642537914
0.5451989219644050 -0.0444994079657957 -0.2395627193084678 0.7748092272501170
-0.9434050725834118 -1.2142499912520088 0.0506204665708197 1.8461995527057933
0.3574403391511246 0.4743243560249983 0.0143691710325244 0.7724445897125323
0.5859647334322873 0.7399256352270105 -0.0649896376033441 1.0671388137525879
-0.5683182686768770 -0.5695818962986939 0.1067454327491649 0.9500109256450189
-0.3750868039065348 -0.6446680949533149 -0.0561249661783452 0.8961886270607744
-0.9435807217133794 -0.9094057032086893 -0.1936459506628483 1.6661391045020362
1.0552123690121882 0.7372291355106025 -0.1458240672935814 1.3863482898943786
-0.1116316472988089 0.1721765676980868 0.3394700179564297 0.6332955617744990
-0.3388851443468230 -0.3880361032811945 -0.0375095634747011 0.7145201929894519
-0.6046955773665563 -0.5213695999274948 -0.1561363871881472 0.9516189115125843
-1.1725304520571695 0.3513793074959212 -0.4983711201628370 1.6695765286375126
0.0235717034475346 -0.4859421343480030 0.2286934946964041 0.7298719599926863
1.1489587486096351 0.1345628268520818 0.2696776254664329 1.2863344675407156
-0.6267265575715514 0.3053960437976135 -0.2277653956619135 0.8841080122489270
-0.5458038944856182 0.0459832636983077 -0.2706057245009235 0.7854685163885855
0.9598401816282227 1.1284712716746934 0.3827596273958985 1.8397506482149582
-0.3882573688080762 -0.6827922028886722 -0.2309060319092903 0.9560248703148000
-0.5715828128201463 -0.4456790687860213 -0.1518535954866082 0.8900074376411559
0.6380728020784603 0.6697477658558669 0.2852055777942348 1.0866269702870102
0.3217673795497624 0.4587235058188265 0.0975540496016638 0.7531236779279481
1.1479111055203928 0.2487555867713385 -0.5845488046387247 1.6609286604297999
-0.4031214042710824 -0.6713078637208711 0.4434409658496342 1.0264102420560826
-0.7447897012493102 0.4225522769495326 0.1411078387890905 0.9984440536850320
0.4958016990745986 0.2292345462600142 -0.2615125684067918 0.7813281037873977
0.6521094064457941 0.0195210405113244 -0.3230362362319329 0.8796005566424022
-0.5209745295677571 0.5657736833067530 1.1243825972273962 1.6966380996831172
0.4291324343012251 0.0361417085913248 -0.9999770030422199 1.1954630300479794
0.0918420952662626 -0.6019153918980777 -0.1244055941851762 0.7936818264646611
-0.1477454548132865 0.2781426500049701 0.5727287206795076 0.8191014717298204
-0.3732290747544706 0.2876310333017829 0.5516538765478886 0.8775366279532968
-0.3164160676853178 1.3623542228504244 0.6157470115345604 1.8336647746875379
0.0649664451943372 -0.8353589712417318 -0.2478978492640370 1.0036013022281154
0.2514496224909805 -0.5269952516086926 -0.3678491622705236 0.8485168792552638
-0.1117891902331502 0.5285636091911173 0.1930333651522586 0.7568719656620457
-0.2046268774521676 0.8337906136593071 0.4227136463823017 1.0767928090254921
0.8572350580302569 -0.8910074597638624 0.1371110946637219 1.6053899495725688
-0.1205177123860201 1.0025951157263773 0.1667541731498288 1.1363298023325052
-0.7367173456442369 -0.1115876559625149 -0.3038652678135507 0.9440632042658477
0.5745505031122422 -0.4850329476167258 0.1073041012705590 0.9058677560101046
0.2826845549180147 -0.4059745121471366 0.0298069933931629 0.6995221935624643
-0.6108896523816315 0.8505838880533054 -0.6528275344054983 1.5998836744505094
0.1768673381807198 -1.0156951543742840 0.7963292313134560 1.3931173413994293
0.4340223142009118 0.1651112663209786 -0.1435016969079577 0.6927819403209753
-0.2906944595794637 0.5711807482239881 -0.3469068894588289 0.8802341087772680
-0.3201951928021678 0.2794031398293174 -0.3059206449466694 0.7196495656732412
-0.0076657660009742 -0.5175589167957226 0.4156230310039979 1.2154312677532912
-0.3969874999451942 0.9841947292094996 -0.9571541742526387 1.5119852624065973
0.4046532659461684 -0.4666358124137769 0.5415311432486408 0.9583664260110253
-0.1055552138498389 -0.1966866819770075 0.2452322668961342 0.5947128711353290
0.0978894478488648 -0.3208722348187152 0.1703907641078638 0.6207183966179624
1.2274671075116119 -0.0913572388521313 0.9257030709854117 1.8458316663918581
-0.6607512128173364 -0.0122775145238168 -0.3988559975898283 0.9162674226146210
-0.5667158946944003 0.1036347533759482 -0.5268470733955833 0.9236838671759184
0.5007459656586899 0.0424266511699890 0.3464427105772673 0.7850389002425791
0.7267211418529221 -0.1337838900221203 0.5792603604081443 1.0607927661492791
-0.1529286533320590 -0.8286434027169072 0.1760787076871886 1.3348607076675629
-0.0029559512742701 1.1830377451784666 0.5468823281496685 1.3936944806291975
0.1558846046063292 -0.3543943424615594 -0.7229610358368571 0.9572277678741535
-0.1989945532227731 -0.4484270292031971 0.1327502296278679 0.7085373924695773
0.0460658998907141 -0.3802163735137101 0.0433284780593207 0.6263233151979857
1.1686320787568727 0.3486350881311944 -0.9187779085532832 1.8423993215684735
-0.5238741026647108 -0.1685111642166122 0.2647893337521757 0.7852836809117550
-0.6447579760921619 -0.1801239239145822 0.6539885748011074 1.0580999536906854
0.6107199228716592 0.3230663583395069 -0.4388844736385094 0.9558698957562518
0.5579121558852135 0.0255687297916875 -0.4798934349147738 0.8865294258122217
-1.1891595231752718 0.9325782108817743 0.1068180035358102 1.8266759740074368
0.6997576209710472 -0.2935402898917615 -0.1300207645816352 0.9145758631454212
0.4894019022042246 -0.6390379209900129 0.0232027610458250 0.9445311190180561
-0.7094966479887551 0.3962181715430244 0.0646278218187888 0.9530309903933964
-0.4796628751865168 0.5363600393387499 0.0421901817170213 0.8736449836140403
-0.1693278452534731 -1.0192112352326026 0.6125541554369105 1.5789303810158215
-0.4161439548073049 0.6856996060949109 0.1759870827404299 0.9581483050874052
0.5854718000607781 0.3335116291376917 -0.7885412381773405 1.1487042700676873
-0.0016346487941174 -0.4348611076866770 0.3899214712997204 0.7647630934902014
-0.1676931964593557 -0.5843501275459257 0.2226326841371900 0.8141672875256201
0.0649024588601519 -1.0016321678954023 -0.8886492714568351 1.6855026674403959
-0.3589220456880269 0.9889332858651734 0.3528035679463578 1.2144963633776953
0.2940195868278750 0.0126988820302290 0.5358457035104773 0.7857839253528227
-0.0340874956814093 -0.5346580792910089 -0.5864456940359902 0.9352308546531896
0.0989899545415612 -0.4669740886043934 -0.3022035774208449 0.7502718127872064
-0.7625620693055302 -0.9284173274690453 -0.1046815431506501 1.5789258381509161
-0.2355637321599088 0.3754001096054283 0.4676185326551703 0.8116647008540211
0.9981258014654391 0.5530172178636170 -0.3629369895045203 1.2951924171659763
-0.3645349503650508 -0.3085850525819202 -0.0831289064422052 0.6919088524725734
-0.3980271189404794 -0.6198322748871251 -0.0215526367084449 0.8870169856783429
-0.0592444830272152 -0.7206755938667753 -1.0891171142119431 1.6598334690431469
0.1526759233176932 -0.2586808836737633 0.5598423766392728 0.8045907059799154
-0.0934314402905225 0.9793564775405386 0.5292747375726704 1.2213587811519564
-0.0451680037702398 -0.4499444046373584 -0.7366576344021047 0.9954253193891346
-0.0140764792569754 -0.2707311892294169 -0.3524594798098384 0.6644081496540122
-1.0102905530949857 0.1787338700435114 0.1427632147613404 1.4529333065688741
1.0019007098725472 -0.6031112436214943 -0.6324478694800676 1.4181873968431169
0.0083898432224386 0.4243773735779829 0.4896846547187272 0.8146622527589227
-0.4290838082127266 0.1907053391277400 0.0300637270433992 0.6819840532262483
-0.5812067448822591 -0.0119714690842287 0.1126994877179412 0.7709492533426259
-1.2742961680287708 0.3158209039015535 0.0096908370090813 1.6637130092668082
0.2751425672538109 0.1655423293602743 0.4318539066415547 0.7302893071486233
0.9991536007749379 -0.4813632332618278 -0.4415447436506360 1.2917806397575058
-0.4388103707327772 0.0838570350748453 -0.0048989266586585 0.6658284490809837
-0.8354857972959935 0.2319638688267081 0.0145897636677398 0.9978845601858246
-0.2279561984751523 -1.0177720314585490 1.0999522070515717 1.8269364668423798
0.0404038816804099 0.4562508395650507 -0.7626875215212449 1.0174510003296855
0.1875523167946920 0.5615211918934983 -0.3372646855303268 0.8413954890034898
-0.0581681025586752 -0.6085230113112997 0.7000951576840323 1.0523944097116249
-0.1697880959164771 -0.4092490201472493 0.3998570493675394 0.7745420571307547
-0.7255685507881107 0.9067906987529271 -0.2904655582893787 1.5705528578872163
1.0872675815073827 -0.3770051078653964 0.3596538415349451 1.3028244360670227
-0.3616990307192792 -0.5297855908875306 -0.0691882832455663 0.8124056622173338
-0.3942062424290755 0.4676357745225199 -0.2700500344041662 0.8310991400513056
-0.3313623083590351 0.4391549242304071 -0.0204155238852125 0.7394537178359107
-1.1629935003282472 -0.5565183536285672 -0.2779708610983820 1.6683090636038584
0.2858671649288384 -0.3119018441888222 0.2216512069819578 0.6869126831544158
0.8771263353993942 0.8684201978173893 0.0563196541164242 1.3305612094139667
-0.5074225460224949 -0.1388938663881029 -0.0745184560489697 0.7252855485621572
-0.6555709543057523 -0.4176244872404644 -0.2034524050494123 0.9430235150417012
0.6868234545974796 0.6266175407146124 -0.2681174200529305 1.4066996569760455
-0.8578130474897796 0.3513058400338684 0.4725818129802026 1.1516551428158779
0.1709895928922999 -0.9779233807484807 -0.2044643929272720 1.1274281563789907
0.4086738116074670 0.3343712498847239 -0.0217676709273116 0.7231937699329604
0.2781496429900127 0.2922462908298885 -0.2463497491256189 0.6835058870430851
-0.8571668741623777 0.5586734641021467 -1.0333560230480074 1.7761384415312751
0.1495737587815719 -0.4892948469138217 0.2870022729519316 0.7667261842020547
0.7075931153807185 -0.0693786171883249 0.7463537500960760 1.1429183304456321
-0.3804322604052344 0.3970530410550196 -0.5044380563184511 0.8947371430534289
-0.4767346137571432 0.1616204230471271 -0.5289179667295565 0.8814012984778462
0.3198229008334415 0.4351664729009607 -0.3134633451726059 1.1946900430478331
0.5667976526472028 0.2901360694543368 -0.5486865981214682 0.9747884289074736
-0.8866205534806442 -0.7253025423552976 0.8621499432940741 1.5163044842156070
0.2140168999970929 0.1334316807077906 -0.0725958893547291 0.5591014133241621
0.1058060008363485 0.3017347921931701 -0.2408674558178769 0.6355886297236710
0.0890267795773558 1.1139393807637417 0.2131691901736604 1.5324918082247467
-0.7876423378611020 -0.7078008460224585 -0.2881343938910382 1.2033706408639719
0.6986155582837462 -0.4061385347412830 0.0749652037173778 0.9499205070821953
0.0806159370286387 0.7121608175441966 0.0329336409397951 0.8709038778090126
0.0084108425487171 0.4017785632195450 0.1802355492338653 0.6615879304157342
0.1740585928352197 -0.5273353621549988 -0.3351371280257522 1.1972574198060122
0.1343782974835643 1.1713800503241873 -0.4121685577743094 1.3430519906090128
-0.3084368903187840 -0.6440446881691887 0.7473056858000616 1.1454735457558896
0.1770487835088071 -0.2692116183262333 -0.2138567021143597 0.6271146917048013
-0.0029901906735874 -0.2581237438287655 -0.1212804259113925 0.5701427281012110
0.1262792683860098 -1.1106351836163633 -0.5203294206534825 1.5993984586475047
-0.5283248425318198 0.6310312910724671 0.7919419299312560 1.2442735351445435
0.4020455741458099 0.4796038925438963 -0.2716125092777734 0.8421109623788660
0.1538568441581483 -0.4385603615496191 -0.2328606466610452 0.7169017926531063
-0.0275775757721385 -0.6720748220667442 -0.2874687739924373 0.8824966659943985
1.2683871286659969 -0.6294222988623792 0.5920245037464849 1.8401408829602350
-0.5001494897495178 0.1657044998665319 -0.2873582530112255 0.7771095413616950
-0.7682376389164790 0.4637177989958473 -0.3046662507352593 1.0685325318489840
0.5823402864257838 -0.2717797276944452 0.3948071694024798 0.9014289272708799
0.6860468422402131 -0.3576425711679340 0.1972173343440050 0.9387119556893551
-0.7280776340660146 0.6232394019954677 -0.8532309790490902 1.6453784959261057
0.3520692285934563 0.3004838281365738 0.5878105246061529 0.8963712767936970
0.3760084054725584 -0.9237232301320416 0.2654204544429372 1.1440331834511113
-0.2408528645781172 0.2231188654319983 -0.2528432806422282 0.6445454486551523
-0.4872247694878974 0.4001205365634694 -0.6003876984068620 1.0008330472709535
1.2618232215916545 -0.2294282031111421 -0.8382788616309412 1.8415313130476609
-0.8174098710959732 0.2074691508041771 0.5291540756415529 1.1112710569422781
-0.4444133504956871 0.0219590523069650 0.3091247859893883 0.7329805861815220
0.4561676537575672 -0.0312468171362803 -0.3810650161741705 0.7732999539613673
0.8056555678340872 -0.1981813859748619 -0.4572138454567707 1.0682313590862937
-0.5656580916883263 -0.6755882384463813 -1.2594669404887799 1.8435512809041583
0.2630874771827013 0.2686210004412817 0.7314999749421007 0.9592608905807259
0.3025706145056230 0.4069672380050996 0.5279669655466792 0.8829707846862082
-0.2156392629120792 -0.3888408825477118 -0.5034466520780853 0.8335904482822371
-0.3500188287762471 -0.2867473558986695 -0.7560202884106947 1.0099608326219212
0.7023095681217002 0.3870312956615544 -0.5869888510379132 1.4187874952562987
0.0917244098578859 0.4045656012958465 0.7957853201741105 1.0242450630826878
-0.7940339779795860 -0.7915968969574008 -0.2087964691361973 1.2427503978319274
0.2407995052567249 0.2380698198170771 -0.2445346846537707 0.6466651631001459
0.4615100628649752 0.1489614758444772 -0.3424541663841424 0.7721223321561528
-0.1991681722113696 0.9867241907285252 1.0411873998198906 1.7752518089200939
-0.0010221203956987 -0.6850983162254790 -0.1959349470941046 0.8668726731457504
0.2001902926069621 -0.3016258745030463 -0.8452524527257860 1.0436584741148540
-0.1371164736874297 0.3858736893416893 0.3381960531680355 0.7251158405317587
-0.0620516985239398 0.6008505013868359 0.7029913466518551 1.0501359683883353
-0.2402373007741988 1.2073981886342617 0.9071846889794922 1.8357619668437080
0.0709532204877555 -0.5719646221731447 -0.6169509608554510 0.9780201209304011
0.1692840802863880 -0.6354335664611169 -0.2902337281240412 0.8720008684019087
-0.1247222938161196 0.4231614785431086 0.3804660584740208 0.7636050611915176
-0.1155150069580793 0.7842367100911530 0.5267186305054714 1.0721569056521902
0.3199911597620245 1.1144257225668430 -0.3819233292900618 1.5946670399915193
-0.6572097197366478 -0.0397402400890606 0.2105587226680999 0.8494444410432511
0.3372185599746024 -1.0746854824777823 0.1713646066219619 1.2416714751380691
0.0992087372877873 0.3578804800301545 -0.1320460161479083 0.6317229948722658
0.2207824224742372 0.7565452425366884 -0.2498773131421535 0.9629440451192535
-0.1101365664803798 0.5433243122398987 -0.0853182023297259 1.1614164886141016
-0.0188551446965370 -1.4158924150779395 -0.0722727819830234 1.5013484548569442
0.1289917111769168 0.8725681028380409 0.1575909843127493 1.0230180126998685
0.0571075088613070 0.2782354558554372 0.0058130978341989 0.5695849444102760
-0.1672440753416868 0.2650888563844615 -0.0911313001639248 0.5918315442038256
0.2976353921934237 0.7298283756406290 -0.5688387599605420 1.4121265171694453
-0.9770437698007250 -0.7481547141657827 0.5442314177459473 1.4332671840329214
0.6794083776073013 0.0183263385251537 0.0246073422145947 0.8403892549685473
0.1243783624152428 0.2550316146468340 -0.1426088532015811 0.5869969053129146
0.1732570297781809 0.4747967609937949 -0.4262299067589610 0.8251296118565306
-1.2514453738135605 -0.6360998811142486 0.4752174899582244 1.7942559037927808
0.2371143695686268 0.3930042138685619 -0.2257696024042233 0.7108898860394166
1.0143310042449336 0.2430956672456868 -0.2494478875540012 1.1806371663387167
-0.7303636922117172 -0.4373791682181826 0.3045916100070113 1.0301576039170048
-0.5210816816018432 -0.1987207128960660 0.1706258799512132 0.7640982998757759
-0.8436041526854428 -1.2555038616698944 -0.1380599673829972 1.8324438461945507
0.3702338200941769 0.6179758252430629 0.2580970992313813 0.9106581658817021
0.4733703325912659 0.6375280364268314 -0.1200371318483841 0.9426809440946619
-0.4836086750683868 -0.8427605213411240 -0.0787441866353446 1.0927214989147169
-0.3599954776170560 -0.4127433403287704 -0.0593157807476526 0.7397223472798338
0.4455531763191779 0.5389583015701120 -0.1857176309003505 1.2502317904448086
-0.3680705865369823 -1.2774222999559945 -0.2551334842089589 1.4408656301654728
-0.0774825897821956 0.7384639983858825 0.4408511151093095 0.9946855355606325
0.1349065108541428 0.3618611275047303 -0.0937078394608437 0.6337518298003194
0.3106466654650351 0.1770971740653818 -0.0920097914395068 0.6164799606444893
-0.6092642195156666 0.7826750470252086 0.7035830894571383 1.5863162923989380
0.5235735674490195 -1.0621588444353893 -0.1322406101876799 1.2897733330533023
0.0856906520666276 0.2794837974101808 -0.5713424792694585 0.8096933307204590
-0.2313662897345058 0.4672823796151701 0.2808377364752967 0.7710188044930522
-0.3778979297811607 0.3153926674100386 0.4227453529818416 0.8152974879058859
-0.5479532584263022 -0.1193097440376564 0.7075206555852502 1.3626391253092658
-0.7035808090729057 0.0367636654746765 -0.2030753312446560 0.8839310450956824
1.2515340674989723 0.0825460785629799 -0.5044453243405942 1.4392127857876802
-0.2789354138705535 -0.0091171913042109 0.2128922258329495 0.6057459603146539
-0.2690178445557487 -0.1101925527334455 0.4946284297523006 0.7568931649946119
0.5495361660484608 0.8882958449980203 0.8368277949316545 1.6805453535247703
0.2279021083311759 -0.3603147138759792 0.0019607694749926 0.6522935604183577
-0.7774382743796366 -0.5279811311220411 -0.8387885644066470 1.3529440422277859
0.3919896788767044 0.5597855831601031 0.5111996412308454 0.9859299473001638
0.1575464871717564 0.3285102618379173 0.3256281537008091 0.6946154062246065
-0.5707018454394801 0.0891919899248860 -0.0893581246805766 1.1759575054452907
0.8184181868032663 0.4625584863445629 0.8944554423470298 1.3883573749049416
-0.2477163413637862 -0.5517504762694490 -0.8050973176664532 1.1214680758206814
-0.3514205290417857 -0.0585656730637012 0.0002438411201088 0.6088048669983714
-0.2192813163976944 0.1477576629885873 -0.0896019658006854 0.5671526384469192
0.1839370443344575 0.9865345949458355 0.9800856357516616 1.7408394321439227
-0.2407864868964654 0.0251352082681807 -0.2675937078548304 0.6115008452807918
0.0568494425620078 -1.0116698032140161 -0.7124919278968312 1.3334426787461995
-0.0534247870091031 0.4797144130497507 0.5172064810842483 0.8626700703972440
0.2373618313435606 0.5068201818960848 0.4628791546674134 0.8781693617466786
-0.5686607743687913 0.7928849211785314 0.1451082987155001 1.4173788616771212
0.7136881793138833 -0.1376503880779833 -0.8157161217412341 1.1989196045723602
-0.1450274049451043 -0.6552345331005481 0.6706078230257340 1.0694844899225602
-0.3846421010867128 0.3273682677718959 0.0932770106253166 0.7124163878747934
-0.1840186732820785 0.4655166534066355 0.0518312880901835 0.7049624738023278
-0.9040241678626753 -0.4011067579709422 -1.1841488204252213 1.8458982053722872
0.4355282294487473 0.1082683328327957 0.5711385397743506 0.8782500113781559
0.4684959384139273 0.2928384251381465 0.6130102806508708 0.9616347394205326
-0.3713500592961468 -0.2855188357461082 -0.5789125645054087 0.8934643864062485
-0.5326741085665284 -0.1155879222248340 -0.6052362559198126 0.9524338189660386
0.8159571923788328 0.1507886587270593 -0.2763180311503885 1.3365735118999844
-0.3963998332658999 0.8442313644394565 0.4537338303028967 1.1486734930374591
-0.4195573591129418 -0.9950200231665157 -0.1774157991525081 1.2005359512342988
0.4058540857054497 0.0253652926228630 -0.0385489549783768 0.6407526349634272
0.4101031066733831 0.1254233661041963 -0.2377690761720117 0.6958208769365573
-0.6380404912854694 -1.1374660414133408 0.1390816974602127 1.6612445431623757
0.3237729271166209 -0.0005220886520329 -0.4070914934960819 0.7171259619593310
0.3142675641688485 1.1379881300653736 0.2680097960358692 1.3074124510492073
-0.4250957205330886 -0.5933565118542283 -0.0132730651164489 0.8812896665466744
-0.2129447707523807 -0.5441095295591125 0.1523547625766616 0.7799548766157013
-0.9207052933204192 -1.2336540299925713 0.0758251029563366 1.8459388076638947
0.4783393979781654 0.6779296374534782 0.0446334096723520 0.9664917457401787
0.4423658953422538 0.5557243925390929 -0.1204585126286885 0.8733524027668406
-0.6005248630120195 -0.7743079296581713 0.0696837397670983 1.0994342567630211
-0.3201804303083997 -0.4593461003344000 0.0061413631892382 0.7465045509008735
-0.1308018803975094 -1.3095582735544307 0.1487434273401121 1.6717702139093702
0.3562697295587955 0.0714321290480568 -0.2418227557680309 0.6589581889592695
-0.2254678491612861 1.2381261445063736 0.0930793284279187 1.3550545533022742
-0.0102225272244450 -0.5240556554893649 -0.0238060314336385 0.7204321880474678
-0.1205793531730644 -0.7855026180650656 0.1725494587737507 0.9513380258619023
-0.4723524292039802 -0.7606007259708216 0.5677577983871533 1.4710708644490076
0.5754294888355660 0.4169220216758540 -1.1037463830577647 1.4024678702993305
-0.1030770596315857 0.3436787042949677 0.5359885846706112 0.8122442214225757
-0.1336289393701565 -0.2908459705478998 0.3257554377758908 0.6725188901367046
-0.3387234898338237 -0.4697547554229218 0.2420023606112626 0.7985519743123031
1.1693817577675278 -0.2820091789664225 -0.5906830500810150 1.6838229719048341
-0.4431680366341629 -0.3535984940353251 -0.0308562467112899 0.7523954359034462
-0.7262137211333755 0.6356076730017477 0.6215392967923048 1.2495645483636104
0.6519505822220483 -0.1991076755674698 -0.4342063711617717 0.9470668303852811
0.5174311755454797 -0.0829015033989527 -0.1564766789192432 0.7367561415195529
0.4591219497990868 -0.4581347467707366 -0.0701819208310735 1.2096327598435432
-0.5506138743960424 1.2059508215671919 -0.3861810938067815 1.4664057556688763
0.0914919245969123 -0.7478160747964552 0.4563630146378549 1.0097444406624754
0.1986467747971726 -0.3334596954556427 -0.1046961093907444 0.6366585939742332
0.2604751750019142 -0.1246750513150939 0.0345141885596709 0.5729741658693100
0.4888217569332338 0.4882657575144064 -1.2540280095920582 1.7516183922861381
-0.2926957192656477 -0.6931684618256623 0.7047291906404185 1.1430282205684552
-0.1961260376675861 0.2049027043112560 0.5492988189516398 0.7911363433163210
0.1531756457919841 0.2954920754872921 -0.5940768486315223 0.8410841976571310
0.3356461111412498 0.1927736820271142 -0.6599511609605360 0.9105341946290071
-0.7069536276794962 0.8046070648772290 -1.1113985786487066 1.8523519884605619
0.3472032127905444 -0.3877402144039897 0.5089973689377277 0.8795952744033231
0.3597504148889517 -0.4168668504732392 0.6024012097109789 0.9538356933070296
-0.3972876045618073 0.2789077974298618 -0.4475093218653017 0.8243837538980121
-0.3096660231176889 0.5256992674473672 -0.6638892567834049 1.0279682345625498
-0.9258697639100191 -1.0481085585055920 0.3186393542229277 1.7587119391325197
0.7936223087831078 0.7952288608879248 -0.5052206926775140 1.3270984284618395
0.1322474551269114 0.2528796976176672 0.1865813384545864 0.5999725885765550
-0.3865275822137839 -0.6091532588751074 0.1129511181793516 0.8814455173390826
-0.5393421816962352 -0.4389552996304845 0.2056882360435761 0.8772664217934371
-0.5662095226192191 -0.1836870108141962 -0.2779145704489635 1.2131464291832614
0.1958862048930107 0.4804437724980979 -0.8755915631809648 1.1311830928909239
0.3703233177259752 -0.2967567616839016 1.1535061336299279 1.3414534341182158
-0.2078647346298113 -0.1822595131080862 -0.1897618799456830 0.5967854132187199
-0.3583447879894078 -0.0014274977061101 -0.0881526905032805 0.6163610159645414
0.4541860350841025 -1.2253179783532286 -0.4644090560228351 1.7213252939948722
-0.3155625577139496 0.2059491960549304 0.5370758148447048 0.8210738154433774
-0.1386234773701530 1.0193687822982982 -0.0726667588218698 1.1433838467326642
0.3210099572447088 -0.5552687400988852 -0.1590604747698869 0.8248563398218354
0.1331760778393937 -0.6700492382543434 -0.3053485812529482 0.8964689541730368
-0.1210671047940936 -1.3651422664571404 -0.4638633333289189 1.7708954785446052
0.1923002846034667 1.0720563574737947 0.5732241734671926 1.3261173275523932
-0.0712331798095303 0.2930859089833459 -0.1093608401382736 0.5887701500884026
0.0665635455674852 -0.6823173253919075 -0.2600270035574584 0.8839223161774746
-0.1876306503615788 -0.6828249410652331 -0.2038363297714605 0.8869731623671304
0.8334382217643170 -0.4299600855599276 0.2410013267464182 1.4034411121625883
0.4121446921367619 0.2544260892687166 -0.5646472105501137 0.8928265984322510
-1.2455829139010788 0.1755339962912110 0.3236458838036955 1.3895152455760753
0.4433017381577045 -0.0965940424338446 0.1206088911455252 0.6812564311914469
0.3901364836066125 -0.3333660431260830 0.1203924356008930 0.7221846809711414
-0.1218041600393487 0.7954635444689078 -0.5885100515171475 1.4286911124378812
0.5412223832163081 0.3847963183311591 0.1486467907058344 0.8407156019794679
-0.4194182231769838 -1.1802598628000669 0.4398632608113131 1.4163762417558170
-0.0098162566953925 0.5490257518665821 -0.3157709995927618 0.8030902437590607
-0.1119879033439562 0.2464377926023257 -0.2727390519243857 0.6256008686788205
-0.3012713464256487 0.5237252496844758 -0.0796030495853940 1.1911005966935968
-0.0829214971791069 -1.2277878910538906 -0.4669802779028270 1.4057477157698628
0.3841928436047556 0.7040626413694149 0.5465833274882210 1.0889346437074547
-0.0403345714929421 0.2235491820273202 -0.1175559030684317 0.5560013355360198
-0.2609367749327066 0.3001760676571555 0.0379528534830377 0.6350992611575769
0.4370361218718135 1.2438845915972432 -0.0479937389599667 1.6670397913656716
-0.1389093106440319 0.1117568389295010 -0.1125264830817599 0.5368096285973866
-0.2981268112278156 -1.3556414305267444 0.1605202220417266 1.4819335362109833
0.3491101088233044 0.6321902050815036 -0.0029107173940335 0.8747958482345244
0.0879260130485091 0.6116943865157397 -0.0450830215659331 0.7922439431311471
0.3728214723923637 -1.3907976556110420 -0.5203385094639953 1.8402695022455426
-0.2793202551716458 0.9136231247389992 0.3624712349103537 1.1348257114964584
-0.0935012172207180 0.4771745308720426 0.1578672745536416 0.7106877424289127
0.2861535497049786 -0.6289150264624953 -0.3128480262480894 0.9049910675666397
0.0866679226873852 -0.7618826291485467 -0.2074904832159059 0.9352784346789028
1.1138725387331658 -0.6131941808170314 -0.2048923126123914 1.6417514346591022
-0.4093218522931804 0.0680234205820492 -0.4909736177275730 0.8105205969905414
-0.7045506864399936 0.5451707602349822 0.6958659303399644 1.2335109245220162
0.5778623532068712 -0.1849364484361384 -0.0636107341008294 0.7847864008988699
0.5360101855262948 -0.4282577323808930 -0.1412815785115620 0.8569650337602325
-0.8697999568527488 1.1918824018343819 -0.2211458700732186 1.8079407447306890
0.3995526721183585 -0.5654678749255222 0.3919519844671875 0.9363437370039236
0.4702472847343901 -0.6264145269088597 -0.1708061143939688 0.9414984744363012
-0.6048455434719898 0.7126845075392165 -0.1295431699618054 1.0650144374406834
-0.2649544133807590 0.4791978942951652 -0.0916027001114132 0.7429263072900055
-0.6360475403417891 0.3234167169966451 1.0292575906931374 1.6149516382952251
-0.0555452807313826 -0.5364460259167261 -0.0159015160565553 0.7313203507870363
0.6915928210731718 0.2130293089200810 -1.0133560746365822 1.3395109670886527
-0.2253341403199261 0.1458012878716589 0.3424049452810034 0.6580209853953303
-0.4107134000218630 0.1776154291249862 0.6868526454121340 0.9569306528998948
-0.5176158373560318 -0.8823986258713374 0.3064908169539871 1.4763253109569636
-0.3677328073751742 -0.2496039556127744 -0.0297696549545144 0.6649306467314329
0.8853486447312060 1.1320025814841117 -0.2767211619994726 1.5445269984825176
-0.1829973217515086 -0.4670790007812288 0.0498590758301737 0.7055875002511419
-0.3346185156045232 -0.4153196250901086 0.2566317411238134 0.7707378107058217
-0.6627092207276601 0.3945782046343607 0.9959674657262199 1.6207185870730076
0.6647938978893660 -0.0852905658567683 -1.1889276594454710 1.4513756808692195
-0.0020846771617838 -0.3092876387775925 0.1929601937192511 0.6136886882358663
-0.3527944186804796 0.0908551013309835 0.5701740259491904 0.8375762362233476
-0.3099148020471806 0.3037231033033773 0.4257934397770295 0.7831423508496601
-0.6206859405295241 1.0445536326553186 0.6921832739318318 1.7319243708557424
0.1467943786352789 -0.4327818224252153 0.1706989049519315 0.6940488397089910
0.4738915618939593 -0.6117718102301035 -0.8628821788837634 1.2598097456325321
-0.2402200112047033 0.6145873852070015 0.2836339990824516 0.8715437645943382
-0.3804659293248207 0.4299662474483172 0.4085492748493801 0.8603806062614041
1.1144240501778517 -0.5375832905783045 -0.4929934243369923 1.6783612569985200
-0.5741797244748073 0.7749173072617822 0.5871400513604405 1.2323269084672126
-0.5402443257034679 -0.2373340166834778 -0.0941466270234481 0.7750947907442034
0.5950192379404911 -0.2139227669634886 -0.3665071964015577 0.8819610813906290
0.5194048122373607 -0.3236605236148158 -0.1264862279354346 0.7964001756078909
0.0919569767779188 1.2527172769003985 0.5050087830227092 1.6971353917794598
0.2914378006027741 -1.1543864035305029 -0.2980928493150454 1.3229211191216332
-0.3833947773806929 -0.0983308733698954 -0.2069159337076638 0.6657264452698209
0.1067763285055967 0.8185343804825426 0.3263616614961637 1.0156912083820611
-0.0148193517276779 0.4341828964178560 0.1786471215265454 0.6814441833973989
1.1421849105918596 -0.1527736876562674 0.5976278833205766 1.6519210221121894
-0.4933331630969304 -0.3028624549147259 0.2206208110189320 0.7921450618364343
-0.6488517474949292 0.4556361425709933 -0.8182486943395084 1.2417168722222904
0.4326941804270893 -0.1048894474201399 0.1689368371833546 0.6859174040962134
0.7094907301647703 -0.0478842402361275 0.4286910461372220 0.9660036180159760
-0.6343763825726434 0.4141075603669406 -0.4212276652851645 1.3407004390970205
1.3024048220431375 -0.1961963158158896 0.0443878840944214 1.4072805617233277
-0.6680284394704984 -0.2179112445510510 0.3768397811907431 0.9378019553509496
-0.3571795496250146 0.2893603561504315 -0.1125127269221533 0.6838733365399559
-0.2771968329476288 0.1247472042165091 -0.3087149383630112 0.6568271025570648
0.3191849826622494 -0.7742545848523862 -0.7136375001622419 1.4985887061725653
0.1715670237401542 0.3761743334941012 -0.4416795578657089 0.7808586203534120
-0.4907520064024035 0.3980802513582850 1.1553170580279508 1.4063356296449365
0.0699615129818019 -0.4342844840641922 -0.4392371203239872 0.7938160080252307
0.2492234696804475 -0.3399701007881940 -0.2744003798382548 0.7047726981473347
1.0808942158564401 0.1708996487481643 -1.0415661169538137 1.8257055176837058
-0.6093220359598515 -0.2756058915301478 0.7133609319405276 1.0953687737471995
-0.4715721798965896 0.1047062427819834 0.3282051850132863 0.7647086647400738
0.4343465412154160 0.1935661711555390 -0.4913062878067403 0.8433407551215878
0.6465476746410241 -0.0226665224073747 -0.5502598291470735 0.9823647625621179
0.0881599611026534 0.9231669436894996 -0.4270942991657648 1.4338442094133796
-0.3907259654905045 -0.8869951649731285 0.9699802252752531 1.4573969330790515
0.3025660043878511 -0.0361717787163711 -0.5428859261094882 0.7945418136784822
-0.0461817442669400 0.4016786961030026 -0.1912995481811653 0.6661764224812098
0.1343417053695934 0.5214882475864970 -0.2357947509845996 0.7676677869321700
-0.8283468330634790 -0.2407192411577817 -1.1050068867744509 1.7324641872338642
0.1344420595440280 -0.3084065686192656 0.4064452067251278 0.7225676199088786
0.6939047735194310 0.5491258097770473 0.6985616800493230 1.2307511490300074
-0.4341864520767177 -0.2156551914427615 -0.4703536680021027 0.8366448410736866
-0.3941603809867613 -0.0250640497150203 -0.6346532187723481 0.8958193461601774
-0.9695708303446935 0.9083849306353354 0.1397506450737521 1.6798220443321330
0.4823721752845544 0.1692036951113894 -0.1406905125912944 0.7244471040664751
0.4871986550601390 -1.0775886257467249 0.0009398675175423 1.2815138077723056
-0.6003134728738887 0.4623840190090785 0.1611073498702143 0.9186118904412793
-0.3692573574708047 0.4460009116262569 -0.0213567047964622 0.7612101538908537
0.7366261371977770 1.2344144345444796 -0.3431009546762842 1.7941139224766298
-0.6014673732906152 -1.0301000624679861 0.1179674128693185 1.2963419420267717
-0.1351587639071636 -0.2043143720764936 0.2251335418069658 0.5953270916676590
0.4768528670429832 0.6074352096123241 -0.1101490857509968 0.9231554539213109
0.2597732701547938 0.6269792249321556 -0.2329518689252875 0.8709584685553189
-0.3505209498125746 -0.2112000480295149 0.3034244536565867 1.1374908325454496
0.9343473462736158 -0.2059721954207676 -0.9718455722368259 1.4503897081061776
-0.5838263964610413 0.4171722434502825 0.6684211185802392 1.0979024155192867
-0.2865368557807652 -0.0543458990419077 0.1351318415174327 0.5890962921155528
-0.0639840940318094 -0.1568541489876071 0.1682926121391539 0.5483945404298969
-0.2942362149136453 -0.7972376236209919 -0.5360308843541611 1.4315134480601275
-0.2581972333982241 0.0509814328150682 -0.5201247782139182 0.7638793642110331
0.5524334483118694 0.7462561908059238 1.0561556625680792 1.4903901438997538
-0.2425089661175227 -0.5210691567421175 -0.3418697105606324 0.8312132963825482
-0.0517272487961226 -0.2761684668788744 -0.1941611737935288 0.6003001516775794
1.1200671238538198 0.4720936464551359 -0.7779177566898130 1.7665034465460709
-0.5730077312921495 0.0254208164581555 0.0298904554595127 0.7573602165987812
-0.5470593925617010 -0.4975144629132913 0.7480273012303004 1.1619192930288935
0.4807643865872837 0.2408263907726562 -0.4864379267315858 0.8771947234195809
0.6393027372665360 0.2312672556824796 -0.2914798299582272 0.8893087231264900
-0.7255048358962501 -0.1358372385334686 -0.8658705347869797 1.5279310478225401
0.3853502991098635 0.4313370573342623 -0.2971644474674206 0.8164375047861651
0.3401545367863866 -0.2954998188007936 1.1630349822543999 1.3414144035622084
-0.4427312631391105 0.0211544270491399 -0.5276567446447826 0.8477010685628862
-0.2827735727571397 -0.1569916655826085 -0.3382137901421971 0.6802299792596539
0.8263554324213945 -0.3176373469117791 -0.9715342080215252 1.6663737222036046
-0.2363811806031464 0.7150199018457614 0.4271943956191863 0.9966652168889519
-0.5899742518182479 -0.3973825549339822 0.5443398124023390 1.0227440170783570
0.3843593265158681 -0.0848858495563740 -0.3176949244878073 0.7068130903633243
0.4419961059055264 -0.2327514973554051 -0.6538392835337179 0.9595606318402804
-0.2966851032753270 0.1869106977510853 0.5772492497528390 1.2193515679505555
0.9689541855621331 -0.6373284545668029 -0.7997241806548820 1.4927610385363121
-0.6722690822868546 0.4504177568157176 0.2224749309020430 0.9736703496885285
-0.0588893503339612 0.1683842618949092 0.3068062516733561 0.6080035128447072
-0.2377957529413658 0.0185264358561762 0.2704429980794829 0.6113480551058482
